0.267643
-0.957627
0.186772
0.344085
-0.155426
0.578457
-0.171904
0.730645
0.038036
-0.158577
0.470201
-0.088304
0.860707
0.484657
-0.880426
0.614305
0.725584
-0.764357
-0.776618
-0.578960
-0.389788
0.301619
-0.928488
-0.228677
0.840446
0.770242
-0.100348
-0.852240
0.224783
-0.127466
0.345006
-0.528076
-0.085941
-0.469033
0.833332
0.752214
-0.890829
-0.354995
0.482961
0.145508
0.520712
-0.056669
-0.942014
0.368912
-0.557322
-0.823422
-0.006281
-0.861176
-0.598527
0.211508
-0.436657
0.015525
-0.482188
-0.367987
0.773277
-0.630225
-0.593685
-0.323408
-0.466284
0.632854
0.529648
0.871040
-0.877624
-0.531704
-0.592248
0.942750
-0.789470
-0.486449
-0.363963
0.689662
0.658998
-0.860347
-0.339291
0.701155
0.497937
0.087258
0.894668
-0.521762
0.247138
-0.705708
0.675342
0.810913
0.313382
-0.783641
-0.564952
0.106777
-0.396582
-0.158637
0.752442
0.118775
-0.527048
0.297135
-0.009757
-0.393962
0.771351
0.389096
-0.436798
0.979936
0.887146
0.165478
0.680543
0.558386
0.276379
-0.686911
0.282458
-0.195416
0.411670
0.169463
0.274430
-0.360132
0.473344
-0.037699
-0.549711
-0.205576
0.181976
-0.117068
0.901754
0.774284
0.713709
0.663211
-0.105095
-0.821248
-0.038881
0.885131
-0.214559
-0.266940
0.258297
0.319440
-0.287205
0.158458
-0.491664
-0.627177
-0.284004
0.783903
-0.296770
0.992037
-0.411762
-0.901524
0.161602
0.860972
-0.227371
-0.374882
-0.175948
0.210410
0.434229
-0.994954
-0.896150
0.306556
0.768582
0.811959
-0.026764
-0.332672
-1.004599
0.931508
-0.461110
-0.207646
-0.331372
0.800841
-0.872027
0.383180
-0.060165
-0.371366
0.773597
0.680416
-0.581717
-0.536126
0.662472
0.003150
-0.389367
-0.179769
-0.135943
0.366168
0.473077
0.672281
-0.434050
-0.108823
0.694262
-0.343624
-0.781215
0.460987
-0.546070
0.192460
-0.868118
-0.527465
0.116074
-0.309105
0.282177
0.784701
-0.539182
0.391798
0.166614
0.415694
-0.979136
-0.049088
0.102036
-0.569757
0.429208
-0.237445
0.417887
-0.993919
0.593748
-0.705807
0.343495
0.038666
0.989389
0.939717
0.941161
0.675991
-0.412303
-0.858992
0.146576
0.054157
0.332956
0.286160
0.530008
-0.553376
0.977609
-0.198930
-0.779259
-0.552558
-0.805281
0.379450
0.863903
-0.784437
-0.668983
-0.033470
-0.370122
0.731024
0.728889
-0.939214
0.760521
0.302117
-0.645866
0.103210
-0.641895
-0.662896
0.042670
-0.717160
-0.986804
0.628671
-0.541873
0.149941
-0.316396
0.778574
-0.549212
-0.787367
-0.764290
-0.601041
0.002961
-0.549150
-0.150121
0.201523
0.834985
-0.289059
0.403514
-0.822481
0.681533
-0.962955
0.924716
0.412178
-0.921636
0.677563
-0.268098
-0.542917
-0.213482
0.077036
-0.215793
0.825813
0.408163
-0.206440
0.454418
0.849195
0.971229
-0.877803
0.617142
-0.594112
-0.648235
0.839429
-0.174096
0.352868
-0.724125
0.676216
-0.442039
-0.865935
-0.620721
0.981589
-0.671138
-0.939188
-1.012274
-0.764767
0.471723
-0.918874
0.913228
-0.785674
-0.455862
-0.309161
0.305777
0.326393
-0.498855
-0.319820
-0.869086
0.967810
-0.499378
-0.926019
-0.887078
-0.851962
-0.508811
-0.542973
0.979077
0.298155
0.819490
-0.732534
-0.026126
-0.614849
-0.595143
0.350755
-0.632702
-0.277387
0.400985
-0.635966
-0.040306
-0.135205
-0.554071
-0.127097
0.079768
-0.009341
0.547809
-0.643655
-0.683146
-0.938027
0.059938
-0.572749
-0.971062
0.559751
-0.481450
-0.864558
0.707536
-0.006676
-0.407429
0.684912
-0.674242
-0.597763
0.953167
0.287130
-0.197926
-0.642958
-0.351614
0.139946
0.068909
-0.956230
0.507438
-0.967554
-0.086746
0.950535
-0.108225
-0.995464
-0.054747
-0.556762
-0.622945
0.263863
-0.514257
0.429320
0.708709
-0.460732
-0.005176
-0.785695
-0.335270
-0.301019
0.255908
0.253460
-0.616169
0.564569
0.683418
-0.678831
-0.158928
-0.530637
-0.304854
0.476037
0.630358
0.762206
0.505402
0.138244
0.798208
-0.558142
0.080885
-0.289895
-0.536327
-0.973862
0.122422
-0.177618
0.288733
0.623212
-0.747865
0.008142
-0.831598
0.238050
0.236873
-0.168815
0.921530
-0.540983
-0.904397
-0.682397
-1.005153
0.750860
-0.338312
-0.133826
-0.768457
0.349178
-0.666176
0.842963
0.120968
0.851739
-0.019310
-0.073123
-0.703077
-0.940827
0.637537
-0.250509
-0.925273
-0.231012
0.573720
0.355555
-0.607041
0.825835
-0.635647
-0.438041
0.047954
0.572023
0.392945
-0.017500
-0.945544
0.468030
0.299255
-0.951521
0.236204
0.954526
-0.085596
0.451334
0.303800
0.246523
0.328573
-0.585060
0.099054
-0.703241
0.356502
0.394994
-0.633556
-0.035384
-0.866261
-0.564429
0.737051
0.711303
0.795811
-0.872822
0.523566
-0.828319
-0.306803
-0.424817
0.759878
-0.912104
0.538206
0.806660
0.573526
-0.137953
0.860885
-0.203218
-0.193404
-0.228083
-0.703610
-0.893433
-0.981622
0.607875
-0.450783
0.101604
0.894007
0.889590
-0.486468
-0.752971
-0.124753
-0.354587
-0.331792
-0.387255
-0.639719
-0.512789
-0.267963
0.903967
-0.323823
0.425233
-0.551774
-0.582297
0.511865
-0.998526
-0.775206
0.096093
-0.130549
-0.923226
0.907291
0.674097
-0.166815
-0.830065
0.791609
-0.136189
0.749065
-0.687336
0.988329
0.673339
-0.786426
-0.505799
0.911978
0.069883
0.149213
-0.407304
0.682131
0.517196
0.083224
-0.588240
0.421720
0.748291
0.826409
0.878961
-0.832161
0.330369
0.881204
-0.607387
-0.572883
-0.248751
-0.546540
-0.694787
-0.574854
0.299666
-0.501437
-0.803762
-0.837368
-0.753190
-0.473780
-0.855458
0.919896
-0.276625
-0.361155
0.830173
0.827541
0.778230
-0.576352
0.497164
0.310109
0.505890
0.919434
-0.297599
0.243434
0.740242
-0.415169
0.415114
0.075298
-0.536804
0.794158
0.513929
0.218504
-0.748729
0.835316
0.645403
0.531469
-0.673794
0.859239
0.718687
-0.421235
-0.627495
0.853249
-0.504712
0.144161
-0.511735
-0.674604
-0.045392
-0.705795
-0.266785
-0.558859
0.588186
-0.743959
-0.652848
-0.688361
0.497617
-0.927010
-0.103088
-0.083696
0.171505
0.352213
-0.269422
-0.297295
-0.429284
-0.049073
-0.480331
-0.785145
-0.502557
-0.153696
-0.915195
-0.777946
0.416166
-0.528284
-0.926642
0.895951
0.582123
-0.427443
-0.766412
-0.492023
-0.161387
-0.010277
-0.020610
-0.561882
0.238098
0.318148
-0.269186
-0.254688
0.403666
0.627219
0.669314
-0.421527
-0.022973
-0.599553
0.270066
0.537157
0.360404
0.791583
0.744103
0.858606
-0.362130
0.829557
-0.918741
-0.961895
-0.727922
-0.845583
0.947071
0.877616
-0.293534
-0.820186
-0.615218
0.562402
0.163118
0.363921
-1.015910
-0.598685
-0.319628
-0.250807
0.136798
-0.915182
-0.636098
-0.179199
-0.337691
0.351435
0.191820
0.921629
-0.117004
-0.444320
0.717056
-0.368213
-0.588553
-0.658647
-0.527139
-0.503236
-0.616889
-0.238883
-0.347063
-0.689286
-0.368945
0.377010
-0.484886
0.021589
-0.073560
0.668248
-0.617866
-0.041176
-0.934267
0.062441
0.690920
0.230248
0.131431
-0.955805
-0.965085
0.810676
0.382211
0.247778
0.730457
-0.749197
0.803891
0.451073
-0.094190
-0.792542
0.812540
0.395941
-0.295779
-0.835264
-0.861298
0.355891
-0.509508
-0.229814
-0.256400
0.011535
0.782867
0.684451
-0.322170
-0.850501
-0.390480
-0.245502
0.224182
-0.728306
0.956593
-0.621471
-0.653844
1.002848
-0.818456
0.719977
0.231667
0.921586
0.983294
0.035063
0.380360
-0.107585
0.240122
0.193461
-0.722755
0.933756
0.367218
-0.582207
0.281741
0.858469
0.187963
-0.974012
-0.129404
-0.045101
0.681245
0.548228
0.117414
-0.685820
-0.717779
-0.659249
-0.414943
-0.743864
-0.287140
-0.069040
-0.757463
-0.105493
-0.350765
0.508491
-0.193734
-0.366684
-0.468948
-0.798686
0.524752
0.781679
0.365343
0.791249
0.709834
-0.263980
-0.787114
-0.003737
-0.408352
0.387275
0.033761
0.466305
-0.654173
-0.268809
0.016291
0.443773
0.037692
0.316114
0.809111
0.628492
0.559282
-0.488008
-0.443921
0.850096
0.402659
0.205252
0.341500
-0.763350
0.822742
0.861921
-0.578164
0.364429
0.630178
0.808231
0.153818
0.325620
-0.455316
0.370276
-0.654927
0.128447
-0.222332
0.396123
-0.405248
0.092573
-0.891045
0.609773
-0.448604
0.147075
-0.063421
-0.633573
-0.233333
-0.489716
-0.123529
0.307240
-0.673373
-0.709911
-0.475260
0.639381
-0.501422
-0.629603
0.531569
-0.068271
0.727165
0.153353
-0.278979
-0.109416
-0.508522
0.265206
-0.731444
-0.160122
-0.608754
0.046780
-0.775110
-0.024574
-0.851629
-0.664309
-0.422718
-0.299459
0.482749
0.514516
0.067557
-0.766516
-1.004392
0.943832
0.553745
-0.654358
-0.786596
-0.922361
0.984205
-0.270700
-0.558383
0.515522
0.644613
-0.831116
-0.332823
-0.600081
0.049635
0.159445
0.652616
0.332881
0.998341
-0.945625
-0.649779
-0.787517
0.024189
-0.497929
-0.447984
0.606155
0.199762
-0.978806
0.132186
-0.728619
-0.741668
0.143966
-0.783034
0.792608
0.481930
-0.552032
0.894834
0.471885
0.164314
-0.673529
-0.015967
-0.142789
-0.508473
0.651147
0.240037
0.568877
-0.205237
-0.117974
-0.114370
-0.189961
-0.077024
0.256910
0.020662
0.932760
0.759411
0.576248
0.562121
-0.048705
0.617561
-0.288406
0.222676
0.844979
0.837204
0.438377
0.652629
0.319565
0.897056
0.553387
-0.217455
0.075786
0.877913
0.751075
0.899234
-0.619616
0.414463
0.110515
0.921100
-0.767859
-0.977186
-0.181950
0.034519
-0.062604
-0.943974
-0.935220
-0.117317
0.814939
0.648734
-0.551879
-0.236170
0.266853
0.148600
0.975918
0.120855
-0.012345
0.406390
-0.225749
-0.692800
0.304091
-0.671769
0.073815
-0.649327
-0.794057
-0.162095
-0.726678
-0.434192
-0.748477
0.383029
-0.495772
-0.522754
0.405589
0.305859
0.511868
-0.658711
0.396161
0.566825
0.224752
0.198591
0.230244
0.671891
0.972928
-0.532343
-0.190252
0.943245
0.591976
0.801246
0.354320
-0.636610
-0.905125
-0.330075
-0.304321
0.172352
0.036777
-0.096620
-1.009253
0.302423
0.486793
-0.733112
-0.308800
0.978057
-0.265845
-0.906584
0.332198
-0.757807
-0.565360
-0.288736
0.836728
0.643563
0.899226
0.050841
0.332388
0.858730
0.539561
-0.859712
0.787572
0.131984
0.945089
0.165111
0.487480
-0.939917
0.852302
-0.816841
0.201508
-0.129268
0.085269
0.207337
-0.826414
-0.417238
0.480150
-0.144119
-0.424768
-0.787647
-0.066213
0.873670
-0.534508
0.380675
-0.443820
-0.725942
0.047157
-0.514321
0.336222
-0.628119
-0.663980
-0.143164
-0.478244
-0.863896
0.988316
-0.525451
0.304527
0.473393
-0.464810
0.145721
0.645963
0.745716
-0.981697
-0.276673
-0.046176
-0.808131
0.306736
-0.565439
0.031820
0.852767
-0.353289
0.978629
0.749852
0.091683
0.358456
-0.694779
0.383063
-0.600807
-0.209352
-0.297136
-0.228824
0.124964
0.593983
0.283104
0.261858
0.569788
0.772340
-0.434595
0.053682
-0.721909
0.700383
-0.305948
-0.972721
0.722530
0.422064
-0.021738
0.900828
-0.259686
0.416883
-0.063688
-0.390735
-0.934651
-0.104535
-0.648564
0.174646
-0.721494
-0.337593
-0.455260
-0.332280
0.449679
0.295889
0.435055
-0.425418
-0.127222
-0.254116
0.820614
-0.568062
-0.497906
-0.597045
0.472204
-0.198758
-0.898510
-0.848148
-0.171026
0.827575
0.597121
0.799344
0.748522
-0.645284
0.216227
-0.346094
-0.054372
0.280311
0.564412
0.297495
-0.534344
0.848842
0.950995
0.024815
-0.485385
0.385169
-0.713060
0.960628
0.972000
0.130963
-0.321652
0.815529
0.593175
0.191764
-0.789176
0.056984
0.974074
-0.678101
0.221363
-0.197466
-0.842820
-0.178199
-0.400523
0.906260
0.165408
0.805116
-0.430807
-0.887113
0.077517
-0.865635
0.410364
0.543823
0.983806
0.345429
-0.460568
-0.501778
-0.256381
-0.150213
-0.561667
-0.285230
0.979941
0.133994
-0.476118
0.572863
-0.690657
-0.265191
-0.371850
-0.682304
0.046878
0.850293
0.107724
0.218749
-0.328888
0.717708
0.095584
0.825777
0.517224
0.668224
0.942508
-0.400570
0.799757
0.339299
-0.845231
0.787621
-0.311610
-0.289616
-0.712405
0.412531
0.552492
-0.256464
-0.848110
0.538180
0.864573
-0.334206
0.107672
-0.777808
0.396762
0.735759
-0.477199
-0.528633
0.570223
0.619896
0.673986
-0.741729
0.324182
-0.209388
-0.917800
-0.172991
-0.540725
-0.971736
0.449650
-0.748849
0.387685
0.621683
-0.961228
-0.954851
-0.686285
-0.674897
0.472725
0.866638
0.079330
0.630536
0.395915
-0.041673
-0.705615
-0.511916
0.146764
0.702103
-0.763915
0.640819
-0.854691
0.829224
0.290978
0.830615
-0.920166
-0.393232
-0.397711
-0.828380
0.446298
0.061067
-0.792410
-0.100750
0.309820
0.595830
-0.490171
0.338009
0.649994
-0.174609
0.655198
0.123492
-0.307990
-0.264814
-0.245381
-0.928006
0.664310
0.048800
-0.426906
-0.165512
-0.269612
-0.191668
-0.525509
-0.106989
-0.368862
0.765220
-0.292787
-0.288925
-0.629707
0.343784
-0.127132
0.817371
-0.607654
0.095149
-0.284362
0.712674
-0.338452
0.214722
0.045078
-0.684996
-0.956044
-0.295036
0.435654
-0.277607
0.451665
-0.805665
-0.201951
0.132156
0.244897
0.351666
0.958968
0.992880
-0.815415
-0.560796
-0.127058
-0.194256
-0.798945
0.628429
0.512990
-0.428718
-0.044873
-0.586429
-0.627175
0.336847
0.492589
0.105400
0.036097
-0.824811
-0.681727
-0.933229
-0.509374
-0.634216
-0.205046
0.918403
0.108302
-0.736115
-0.887263
0.875423
0.377691
0.356364
0.242135
0.337089
0.359953
0.432645
0.767389
-0.752696
-0.763561
0.952943
0.841987
0.760374
-0.463532
-0.231640
-0.854217
-0.067788
-0.864521
0.649693
-0.970053
0.163182
0.805944
-0.642195
0.242479
-0.703927
-0.268704
-0.959264
-0.787932
0.840150
-0.706483
-0.685779
0.724588
0.673054
0.662676
-0.032505
0.010130
0.023280
-0.599273
-0.238415
0.241390
-0.363037
-0.272457
0.106790
-0.623178
0.263163
0.874341
-0.460077
-0.811045
-0.990433
-0.826806
-0.780996
0.171050
-0.986583
-0.433017
-0.585689
-0.703020
0.312965
-0.545935
-0.480444
0.123693
-0.263165
-0.171819
-0.148256
-0.586267
-0.504455
0.816394
0.410285
0.530343
-0.778821
-0.824477
-0.212090
-0.140098
-0.116398
0.887024
0.254326
-0.828650
0.767111
0.781286
-0.649675
0.773308
1.002793
-0.434512
-0.055705
0.999085
0.160199
0.342778
-0.714561
-0.542968
0.813778
-0.208424
0.601772
-0.451245
0.605352
-0.546056
-0.033941
-0.875897
-0.737542
-0.603544
0.671724
-0.516363
-0.458937
-0.558716
0.342269
0.439708
-0.671261
-0.392705
0.616979
-0.913055
-0.597012
0.965359
0.844752
-0.628002
-0.458208
-0.198711
-0.657663
0.673837
-0.833017
-0.341961
-0.857810
0.973100
0.441223
0.725024
-0.468548
0.059105
-0.821530
0.505208
0.186523
-0.561479
0.902223
-0.152862
-0.088416
-0.547697
0.290273
-0.754067
0.892778
0.618992
-0.146121
0.510356
0.690010
0.227673
0.475512
0.547777
0.623085
-1.003197
-0.651779
0.964604
0.687960
-0.491216
-0.377605
0.813723
-0.518013
-0.938078
0.573026
0.003608
0.121807
0.738986
-0.476493
-0.692652
-0.811980
-0.603709
0.143743
0.093993
-0.147928
-0.562140
0.344615
-0.257990
-0.956719
-0.789990
-0.743574
0.736944
0.453863
0.733692
0.265253
0.069269
0.748090
0.638060
0.039623
0.423088
-0.863134
0.658642
0.285099
-0.384987
0.720499
-0.158968
0.646349
-0.173525
-0.430609
-0.846273
0.150758
-0.256014
-0.428923
-0.707347
0.823575
0.423587
-0.265926
0.191409
-0.842288
-0.202528
0.418689
-0.585862
-0.496505
-0.145807
-0.853434
0.783793
0.923892
0.905368
0.427782
-0.045392
0.342872
0.562698
-0.402261
-0.405789
-0.811333
-0.669515
0.406488
0.806854
0.179878
1.006154
0.971901
-0.677026
-0.258258
-0.475962
-0.374786
-0.422155
0.947127
0.366986
0.772557
-0.897568
-0.834988
0.180131
-0.494009
-0.322465
-0.963825
-0.355354
-0.537912
0.960047
-0.449341
0.890464
-0.101277
0.864330
0.452958
0.509483
-0.518044
0.621110
0.839123
0.887633
0.445282
0.012584
0.893532
0.400764
0.335656
-0.366422
0.959084
0.951044
0.212204
0.893701
0.332714
-0.016225
1.006649
0.468299
-0.846833
-0.492970
-0.850714
-0.806813
0.156362
-0.391460
-0.860338
0.718536
-0.496937
0.042049
0.599040
0.957776
-0.467948
-0.926678
0.596484
-0.604239
0.966701
0.028809
0.398362
0.856863
-0.522150
-0.269824
-0.509623
-0.580154
-0.291057
0.686752
-0.697080
-0.974472
-0.312534
-0.703858
0.514880
-0.161226
-0.211224
0.664600
0.035533
0.968334
-0.734739
0.195311
0.704149
-0.231675
-0.793569
0.284843
-0.275164
-0.246470
0.358596
-0.667968
0.155214
0.316395
0.375256
-0.448375
0.157749
0.819354
0.292748
0.660374
-0.789546
0.973540
0.370042
-0.456363
-0.989611
-0.950154
-0.168610
0.506331
-0.101779
0.632676
0.170431
0.941450
0.604336
0.433291
0.137319
0.297379
-0.808972
0.352771
-0.415931
-0.092045
-0.892944
0.942646
0.240636
0.262863
0.243111
-0.413310
0.814290
-0.586119
-0.570539
0.086528
-0.926591
-0.360901
0.077385
0.437030
0.182487
0.071364
0.486979
-0.987821
-0.388033
-0.624627
0.645644
0.769890
-0.668494
0.248995
0.213683
0.439394
-0.464368
0.399117
-0.204377
0.123542
-0.688239
-0.100162
0.052618
0.563914
-0.833237
-0.700618
-0.833220
0.982806
-0.306205
-0.411434
0.086948
-0.208213
0.233414
-0.848627
-0.781159
-0.587473
0.271015
0.701992
-0.575359
0.865887
-0.894926
-0.945543
0.625150
-0.579548
0.320390
-0.174583
0.880898
0.854173
-0.789870
-0.323045
-0.018721
-0.454890
0.568908
-0.945990
-0.873712
0.735672
-0.677522
-0.725278
0.717214
0.031318
-0.136282
-0.185148
0.829028
-0.911775
-0.019350
-0.954075
-0.514749
-0.782098
0.758861
-0.077866
-0.944957
0.835774
-0.000490
0.710460
-0.732454
-0.687764
-0.472519
-0.870493
-0.824006
-0.249861
-0.194045
0.164972
0.298551
-0.627542
0.219544
0.413734
-0.902454
0.551033
0.690303
0.806851
-0.416874
-0.445996
-0.377639
-0.587255
-0.373700
0.573808
-0.541531
0.124566
0.815125
-0.803186
-0.954145
0.869349
-0.950090
0.038946
0.579556
-0.698970
0.351279
-0.894658
-0.535184
0.517450
-0.143739
0.258266
-0.302894
-0.846170
0.641234
0.887208
0.556817
0.733179
0.441721
0.250961
0.544718
-0.978001
0.791394
-0.821404
-0.561198
-0.578653
0.768578
-0.100971
0.526445
0.576029
0.113447
0.596885
0.451127
0.150387
-0.374152
0.027310
0.499702
0.973298
0.132586
0.947422
0.518457
0.973019
0.195060
-0.800565
-0.856216
-0.177131
-0.892294
0.698753
-0.458345
0.549854
-0.046721
-0.890433
0.563973
-0.235210
-0.694559
-0.997225
0.155216
-0.944326
-0.099465
-0.303291
0.632134
-0.975318
-0.700485
0.074357
0.189484
-0.076586
-0.913837
-0.344577
-0.092353
0.230992
-0.425908
-0.602044
0.226929
0.799424
-0.391286
0.363057
-0.386103
-0.302526
0.071394
0.168069
-0.753163
-0.967632
0.280952
0.808402
-0.202284
0.575290
0.800593
0.961946
0.632809
-0.306777
-0.340570
0.264924
-0.281450
-0.040466
-0.676652
0.878831
0.882752
-0.577474
-0.442330
-0.230108
0.652674
0.130956
0.185164
-0.126814
-0.069878
0.777460
-0.763666
0.542323
-0.490781
0.297898
-0.288831
-0.256451
0.344953
0.991142
-0.437544
-0.886774
0.555683
-0.642547
-0.921355
0.192336
0.055364
-0.264768
-0.556312
0.785428
0.698828
-0.229302
0.680433
0.583333
0.173750
-0.769571
-0.629173
-0.148996
0.367128
0.543043
0.714209
-0.706123
0.368786
0.946714
0.836135
0.860910
0.272325
-0.468522
-0.406170
-0.398852
-0.460446
0.142866
-0.264566
-0.906611
0.485927
-0.185470
0.289286
-0.435505
0.541870
0.753088
-0.632813
0.240698
-0.507137
-0.970725
-0.177233
0.681652
-0.739865
0.204296
-0.461412
0.618356
-0.238237
-0.749154
0.896731
-0.903214
-0.791495
0.745107
0.928951
0.452665
-0.700500
-0.446958
-0.934864
-0.168608
0.687523
-0.218372
-0.065628
0.185960
0.595654
-0.768645
0.753758
0.135120
0.985000
-0.890159
-0.634769
-0.513123
-0.859038
0.180090
-0.830701
-0.598924
-0.614957
-0.291522
-0.996496
0.117598
-0.040879
0.913250
0.237803
0.147110
0.657512
0.165943
-0.382902
0.950593
0.718731
-0.334185
-0.217912
0.404551
0.481726
0.706633
-0.408711
0.064871
0.952672
-0.655932
-0.789502
0.908233
-0.556840
-0.429871
-0.601417
-0.412037
0.754906
-0.434953
-0.024530
-0.848533
0.277587
-0.017360
0.285251
-0.761535
-0.123588
-0.484626
0.403186
-0.441493
0.687057
-0.992679
-0.500880
0.402416
-0.278583
0.277368
-0.193095
-0.813953
0.011727
0.382369
0.240293
-0.051735
0.743371
0.437366
-0.122445
-0.815317
-1.006891
0.276584
-0.223790
0.771202
0.833746
0.771794
0.939947
0.111334
-0.276496
0.206845
0.348534
0.614957
0.722651
-0.237587
-0.820612
0.400805
-0.215843
-0.323439
-0.212286
0.471811
0.964887
0.606868
0.629113
-0.051549
0.012156
-0.100333
0.908034
-0.252133
-0.671354
-0.233350
-0.057865
-0.665751
-0.957263
0.726040
-0.891223
0.874077
0.498391
-0.962380
-0.025162
-0.769087
0.246311
-0.684548
0.846640
-0.031053
0.078523
-0.973373
-0.646184
0.833477
-0.297013
0.154552
0.328703
-0.352643
-0.239427
-0.042997
0.613129
0.766307
0.856414
0.504737
-0.485730
-0.816641
-0.694326
0.446575
-0.481606
-0.664099
0.187304
-0.373809
-0.779510
-0.343734
-0.346935
0.189716
-0.109352
0.903219
0.509856
-0.265553
-0.141411
-0.400107
-0.234867
0.216067
-0.550454
0.469878
-0.648858
0.770575
-0.865169
0.136299
-0.266679
0.735003
-0.107371
-0.413640
0.288024
0.403058
-0.230345
0.576603
-0.122638
0.272225
0.901877
-0.951469
0.915351
-0.891055
-0.274154
-0.433442
0.284269
0.616924
-0.526658
-0.182667
-0.656508
0.352053
0.434499
0.108625
-0.462809
0.865693
-0.422765
-0.096619
0.636700
-0.277224
-0.954397
-0.638887
-0.527813
-0.063717
-0.068033
0.726457
-0.649699
0.713872
0.274307
0.199498
0.009016
0.206455
0.259350
-0.083298
0.307008
0.966259
0.492858
-0.396207
0.582685
0.973904
0.424428
0.923770
0.326512
-0.152188
0.021823
0.872720
-0.284644
0.591138
-0.223128
-0.647965
-0.685435
-0.176933
-0.302780
-0.242441
0.759153
0.642210
-0.492570
-0.911063
0.355234
0.780926
0.305751
-0.642170
-0.012868
-0.451320
0.274635
-0.707556
-0.450785
-0.242337
-0.102983
-0.880609
-0.253746
-0.679538
-0.946326
-0.956673
0.157531
0.069885
0.919519
0.876731
-0.334288
-0.306449
-0.784806
-0.008211
0.520679
-0.083921
0.765525
0.281588
-0.461190
-0.734719
0.388129
0.918633
-0.948047
-0.319087
-0.733516
0.035714
0.277878
0.537290
0.328093
0.809998
-0.677334
-0.790719
0.918763
0.052792
-0.453322
0.959013
0.117175
0.702361
0.014498
0.037150
0.582647
0.703410
0.722807
0.817961
-0.287512
0.243486
-0.296888
-0.540339
-0.476193
0.256969
-0.274628
0.922638
0.181528
-0.231577
-0.382034
0.446061
0.788634
0.862085
-0.005717
0.128970
0.643337
0.288799
0.361168
0.592366
-0.647087
0.900184
0.542990
0.451151
0.612130
-0.429994
-0.512206
0.202483
-0.723267
-0.791805
0.021004
-0.021897
0.441102
0.733132
0.439617
0.956995
-0.009126
-0.835031
0.880281
-0.827010
-0.082538
-0.530953
0.618852
-0.280888
-0.645453
-0.407371
0.847237
-1.002947
0.898755
0.201989
0.589180
-0.764758
0.102270
0.130466
0.720679
-0.295425
0.701253
-0.804037
0.921745
0.977004
-0.585330
-0.086676
-0.055633
0.850166
-0.350081
-0.612173
0.811850
0.637947
-0.460775
0.703648
0.814996
0.460350
-0.811131
0.435604
-0.840015
-0.464258
-0.954170
-0.968192
-0.461443
0.931627
0.223813
-0.875636
-0.784855
-0.677745
0.254766
0.918736
0.054546
-0.059808
-0.895928
-0.039842
-0.065869
-0.494681
0.894529
0.876649
-0.658919
-0.455118
-0.731968
-0.823864
-0.825058
-0.172620
0.897062
0.989938
-0.743197
-0.932414
0.424274
-0.568170
-0.396242
0.480814
-0.530439
0.133411
0.426854
0.691429
0.242265
0.608247
-0.975371
-0.490720
0.498228
0.051012
0.472388
0.632576
-0.977512
-0.601143
-0.870494
0.898079
-0.714909
-0.516900
-0.557543
-0.439171
-0.337438
-0.385004
0.388763
-0.451481
-0.405648
0.654581
-0.382048
-0.989288
-0.912820
0.221694
0.492176
-0.442661
-0.660828
-0.110175
-0.751431
0.594459
-0.478508
-0.747319
-0.897107
-0.981089
0.321008
0.568861
0.651234
0.327077
0.967820
0.779039
0.259432
-0.756912
-0.737072
0.689379
-0.181398
-0.075494
-0.685116
-0.822075
0.462283
-0.096370
0.835978
-0.915922
-0.080968
0.920326
0.292198
-0.577277
-0.518276
0.635024
0.328733
-0.267951
0.210017
0.842544
0.002335
0.337494
0.867200
-0.689622
-0.103625
0.515065
0.685728
-0.139649
0.294038
-0.071927
0.131167
0.541139
-0.393174
0.933635
-0.517417
-0.091715
-0.867376
0.943016
0.797511
0.969035
-0.969350
-0.260240
0.881481
0.342970
0.179750
-0.636795
-0.052928
-0.509873
0.093986
-0.827867
-0.666897
-0.892978
0.515550
-0.808602
-0.568194
-0.590020
0.690962
-0.916212
0.281279
-0.002757
-0.016893
-0.615708
-0.438702
0.620207
-0.670752
0.036218
-0.479903
-0.557066
-0.011175
-0.669874
-0.588529
0.027176
0.073198
-0.709455
-0.629299
-0.758159
-0.356828
0.326803
-0.266186
0.729244
0.499700
0.066902
0.836915
0.015842
0.242367
-0.760474
0.425621
-0.053655
-0.653270
-0.313606
0.942743
0.329028
0.088000
-0.502379
-0.051019
0.400835
0.533941
0.467380
0.878045
-0.487065
0.798297
-0.722994
0.554798
-0.129491
-0.421940
0.896060
0.101606
0.215630
0.226331
0.839265
-0.050436
-0.276814
-0.107410
-0.202010
0.743089
-0.861390
0.053696
0.170470
0.065490
0.392749
0.874459
0.032814
-0.272475
-0.050492
0.520456
0.673132
-0.601380
0.050557
0.140447
-0.740423
0.591216
-0.077083
-0.474042
0.129885
0.810364
0.090597
0.047002
-0.089890
-0.708178
-0.726233
-0.247051
0.264604
-0.010924
0.665652
-0.920139
-0.267836
0.773348
0.115209
0.901365
-0.146119
-0.491612
0.786535
0.892616
0.227009
-0.249538
0.411126
-0.115369
0.115326
-0.527359
-0.962672
0.346150
-0.964305
-0.016837
0.902380
0.176901
-0.214138
-0.015418
-0.795028
0.705571
0.288932
-0.521758
-0.533781
-0.443162
0.464914
-0.867572
-0.374406
-0.813510
0.914791
0.742650
-0.920054
-0.230557
-0.748981
0.867130
-0.337349
0.462098
-0.411614
-0.926421
-0.640250
0.727128
-0.474300
-0.603767
0.072473
-0.421284
0.372972
-0.025405
0.739195
-0.841062
0.957480
0.978446
0.854685
0.247192
-0.555822
-0.664412
0.803048
0.919600
-0.561422
-0.582105
-0.899510
-0.643159
-0.835611
-0.814876
0.123444
-0.598163
-0.936229
0.790157
0.867587
-0.331661
0.865488
-0.792130
-0.612213
-0.591211
-0.371310
0.466003
-0.025453
0.991683
-0.562776
-0.237971
-0.853208
-0.605360
-0.276619
-0.970813
0.626002
0.156934
-0.651353
0.445985
0.063109
-0.191718
0.862032
0.149202
0.165576
-0.970024
0.357538
-0.718871
-0.548068
0.438579
-0.928715
-0.711395
-0.911441
0.935509
-0.488480
-0.523222
-0.644991
0.146134
0.933873
0.343972
0.135865
-0.644404
-0.927759
0.293592
-0.237522
-0.233131
0.294628
-0.588605
0.954074
0.654597
0.849720
0.008788
-0.556054
0.721338
-0.829499
0.609011
0.759020
0.531351
0.887732
-0.788490
-0.041188
0.948433
-0.490860
0.049225
0.876034
0.021422
0.525982
-0.768309
-0.831855
0.443928
0.546463
0.303810
0.812539
0.642119
-0.423103
-0.425830
-0.591823
0.888851
-0.020847
-0.638002
0.527021
-0.171029
0.369090
1.005247
-0.459517
0.540380
0.601747
-0.685810
0.070746
0.499985
-0.503738
-0.981179
0.442824
0.008871
0.071887
0.323546
-0.972553
-0.415699
0.566754
-0.800350
-0.968119
0.129395
0.505215
0.824953
-0.236161
-0.900288
-0.576289
0.177763
0.975604
0.392881
0.536388
0.550902
-0.781977
-0.094587
0.539060
-0.213778
-0.570035
0.130182
0.084279
0.517650
-0.383252
0.601603
0.534622
-0.954832
-0.389094
-0.389927
0.391933
-0.369534
0.214491
-0.024043
-0.169884
0.215451
-0.913003
-0.665934
0.055453
-0.148737
-0.555511
0.485089
-0.979880
-0.565501
-0.123984
0.541006
0.951655
0.104974
-0.541338
0.461962
0.863044
-0.088454
-0.377589
-0.041361
-0.578469
0.230770
-0.458698
0.965739
0.288464
0.151707
-0.416488
-0.316300
0.779768
0.798557
0.648548
-0.400695
0.023034
0.737391
-0.074544
-0.920756
-0.411363
0.370595
0.564927
-0.407173
0.775900
-0.559254
-0.853152
0.750970
0.525216
-0.395338
0.212126
0.405578
0.509788
0.834283
-0.652201
0.931422
0.063353
-0.076614
0.887337
-0.647400
-0.937414
-0.514467
0.035314
0.852866
-0.745348
-0.326881
-0.553435
0.281157
-0.585647
0.376711
0.357560
-0.010584
-0.241181
-0.073453
0.585896
-0.449097
0.369049
0.713277
-0.705808
-0.088129
-0.657472
0.512058
-0.695516
0.842337
0.342969
-0.299433
0.769930
-0.593737
0.606858
0.684976
-0.256967
0.658817
-0.845619
0.795287
0.498260
-0.569904
-0.533444
0.930422
0.711679
-0.115529
0.330352
0.061362
0.894000
-0.893562
0.987909
0.448980
-0.361012
0.355690
0.177306
-0.066392
-0.721739
0.525753
-0.563236
-0.402843
0.366143
0.764234
0.263964
0.147008
-0.817261
-0.157931
-0.196165
-0.051309
-0.468844
-0.030469
-0.263680
-0.978970
0.380688
0.212460
0.963965
0.091872
-0.895374
0.297628
-0.849170
0.999188
0.392961
-0.871846
0.457191
-0.966204
0.475939
-0.364740
-0.032607
0.754846
-0.838395
0.388224
-0.677198
0.527549
0.165474
0.610181
-0.345951
0.347364
-0.548561
0.475204
-0.710364
-0.017653
-0.571682
0.026052
0.001672
0.843291
-0.771316
-0.033569
-0.077342
-0.652006
-0.736924
0.083991
-0.682260
0.645291
0.206552
0.778393
0.682931
-0.312823
-0.589187
-0.363253
-0.546461
-0.423524
-0.971377
-0.207481
-0.894223
0.174632
-0.604978
-0.222562
-0.453417
-0.147789
-0.760324
-0.173761
0.831183
-0.283722
0.848461
-0.167208
-0.457526
-0.895145
0.783394
0.454504
-0.563280
-0.936595
-0.474922
-0.224483
0.706848
0.717226
-0.445644
0.393340
-0.572392
-0.042717
-0.949800
-0.101570
0.533758
-0.952090
0.672594
0.638270
0.237585
-0.931952
-0.573592
0.790086
-0.088647
-0.319504
-0.385622
-0.272974
0.363014
-0.526214
0.572066
0.876742
-0.449523
0.378377
0.361507
-0.001485
0.434126
0.878200
0.755105
0.150558
0.607939
-0.691043
-0.448406
-0.961127
0.263836
-0.397648
-0.073811
-0.212985
-0.340713
-0.399367
-0.582632
0.897627
-0.331338
-0.155575
0.688312
0.564082
0.495719
-0.697509
-0.695872
-0.117852
-0.244244
0.875350
-0.241920
0.323557
0.247311
-0.880668
-0.694345
-0.318471
0.995831
-0.904960
0.822259
0.604559
-0.608513
-0.611463
0.642450
0.665832
-0.038534
-0.442104
-0.552763
0.624199
0.162373
-0.130705
0.518994
0.817462
0.725235
0.211364
0.385206
0.237134
0.515607
0.669858
-0.888394
-0.711035
0.569793
-0.124569
0.599568
-0.192880
-0.008613
0.953500
0.484808
-0.012846
-0.968548
0.334788
-0.424115
-0.587688
0.707196
-0.764731
-0.935279
-0.310294
-0.208694
-0.502446
-0.685658
0.957245
0.390067
0.825456
0.794826
0.132569
0.036819
0.149105
-0.648650
-0.448838
-0.165988
-0.536613
-0.149171
-0.590276
0.329910
-0.535188
0.214897
-0.694206
-0.615434
-0.289348
0.305191
-0.612728
-0.982711
0.903990
-0.170152
0.735806
-0.868401
-0.113824
-0.593423
-0.067495
0.396258
-0.279580
-0.102548
-0.210373
-0.456526
-0.307164
0.911089
0.569705
0.850959
-0.735716
-0.887041
-0.314256
-0.272348
-0.035554
0.096057
-0.958370
0.400062
-0.689243
-0.639560
0.808045
0.000899
0.664786
-0.805501
0.035506
0.562357
0.024098
-0.245100
0.694058
0.908578
0.195751
-0.383266
0.305613
0.903663
0.528873
-0.905739
-0.542355
-0.807730
-1.005395
-0.978250
-0.953300
-0.737270
-0.860603
-0.270398
-0.023190
0.115357
0.829721
0.022106
-0.468395
-0.857769
0.363065
-0.668031
0.160744
0.052435
-0.467783
-0.816711
-0.395185
0.552941
-0.013531
-0.704956
0.461453
-0.834876
-0.060505
-0.248759
-0.941840
-0.547766
-0.137562
-0.497618
-0.334437
-0.144819
-0.490260
-0.287293
0.121484
-0.327655
0.434424
-0.881594
0.804968
0.264144
0.109580
-0.681780
0.405110
-0.512308
-0.349381
-0.423448
0.546053
0.173932
-0.225743
-0.851078
-0.288636
0.726962
-0.545089
-0.814935
0.863340
0.366238
-0.040774
0.951767
0.829794
0.813999
-0.554241
-0.523577
-0.321222
-0.031989
0.188623
0.807959
0.643657
-0.379354
0.926923
0.437520
0.874202
0.045531
0.757588
0.271407
0.533984
-0.591812
0.848606
0.080634
0.566189
-0.406342
0.229354
-0.709427
-0.655963
0.663752
-0.525206
-0.793440
0.047305
0.427596
-0.841926
-0.139313
0.241698
-0.397869
0.371383
0.910650
0.570921
-0.452498
0.733293
0.213592
0.178646
0.630777
-0.359629
0.047254
-0.320221
-0.598198
-0.676654
-0.789076
-0.203583
-0.816531
0.295618
-0.633741
-0.206694
-0.473269
-0.362635
0.129668
-0.791922
0.136742
0.341975
0.242433
-0.445638
0.496673
-0.848609
0.792231
-0.901257
0.505686
0.730591
0.653835
-0.957441
0.447755
-0.115633
0.207788
0.099589
0.522889
-0.759362
0.779801
0.928246
-0.412796
0.982845
-0.255214
-0.212060
0.278463
0.080123
0.562893
0.803927
0.732535
-0.307011
-0.977284
-0.124792
-0.973943
0.279561
0.427618
0.507231
0.397200
0.230783
0.618216
-0.125867
-0.066774
0.294968
-0.053036
-0.607700
-0.828327
-0.853635
0.472951
0.704147
-0.600484
0.252259
0.640099
-0.009968
0.232702
-0.614561
0.766864
-0.499417
0.474591
0.331603
-0.703405
0.207891
-0.975427
-0.680040
-0.916313
-0.965298
0.570320
0.511106
0.554948
-0.009067
-0.278618
0.172317
0.864257
0.671930
-0.539134
-0.189028
-0.952197
-0.367359
-0.044368
0.555040
-0.673036
0.355938
-0.205208
0.981747
-0.655010
-0.961999
-0.662253
-0.898894
-0.467022
0.815801
0.436551
-0.165737
0.020852
0.447555
0.165735
0.108600
0.485919
-0.247764
-0.378539
0.021394
0.735493
0.360450
-0.781705
0.605497
0.019409
-0.330819
-0.586902
0.115501
0.297981
0.368667
-0.346555
0.652667
-0.291221
0.437609
0.618285
0.070704
0.462185
0.977095
0.169951
0.980759
0.793330
-0.389924
-0.161760
-0.193695
-0.922256
-0.978759
0.914903
0.532740
-0.244872
-0.464903
-0.430826
-0.508947
0.906249
-0.206606
-0.912355
-0.059924
0.460624
-0.514759
-0.978188
-0.230448
0.866151
-0.353497
-0.605932
-0.402154
-0.885616
-0.976326
0.660888
0.568179
0.981832
-0.159561
0.561451
0.774665
0.458212
-0.596997
-0.421434
0.536514
-0.586860
-0.517119
0.078277
0.170114
0.010068
0.648209
0.661146
-0.083033
-0.557802
0.732862
0.827839
0.902622
-0.768881
0.873066
-0.348334
-0.903575
-0.481241
0.063049
-0.312151
-0.367111
0.070314
-0.651160
-0.800633
0.086418
0.179448
0.761607
-0.151426
-0.347652
-0.836372
0.437642
-0.840577
-0.433979
0.914927
0.241170
0.739977
-0.070313
-0.113462
0.387552
0.858168
0.332796
0.124078
0.702180
0.237176
0.335718
0.567573
0.906437
0.456729
-0.907924
-0.043466
-0.865401
-0.278408
-0.924879
-0.520390
-0.079104
0.144454
0.686772
-0.333325
0.982398
-0.677008
-0.152762
0.406622
-0.496526
0.411400
0.307156
0.745075
0.154948
-0.739966
-0.376264
-0.437385
-0.864520
0.956532
0.655765
0.819315
0.192439
0.006528
0.387318
0.109577
-0.530823
0.470492
-0.919469
-0.398170
-0.823417
-0.878094
0.092373
0.109722
0.237606
-0.249002
0.799312
0.250273
0.085304
-0.361105
-0.351496
0.569849
-0.940117
0.968167
0.314425
0.222531
-0.768473
0.935756
0.785701
-0.644097
0.881704
0.450491
-0.822935
0.066233
-0.542225
0.564363
-0.823530
-0.072450
0.018925
-0.772193
0.529182
0.208524
-0.626872
-0.398951
-0.682599
0.609923
0.369367
-0.889706
-0.140052
-0.561746
-0.250715
0.506756
-0.957618
-0.200659
0.475710
0.344302
-0.963440
0.706258
0.290562
0.792822
-0.948587
0.166670
0.246781
-0.767678
-0.762408
0.701719
0.783113
-0.574421
-0.366672
-0.194299
-0.330434
-0.835737
-1.005284
0.035014
-0.217076
-0.663265
-0.349314
-0.860675
-0.562950
0.507260
-0.374137
0.182492
0.013952
-0.348850
1.009548
-0.526165
0.984821
-0.970008
-0.802973
0.261964
0.843877
-0.753408
-0.585770
0.091101
-0.517531
-0.324959
-0.215075
-0.714298
0.117889
0.418252
0.060474
0.769097
0.581251
0.070273
-0.195461
-0.625125
0.412934
0.446321
-0.471389
0.848033
-0.061929
0.120714
0.041470
0.964271
0.743118
0.022885
-0.538979
0.758206
0.064190
-0.349606
0.011775
-0.110872
-0.093430
0.438532
0.979723
0.396741
-0.883124
-0.237756
0.683000
0.223651
-0.830092
-0.247497
-0.005401
0.743250
0.823533
0.799120
-0.881227
0.237058
0.229511
-0.381817
0.084887
-0.819396
0.762314
-0.894142
-0.855969
0.504611
0.146053
-0.401367
0.262566
-0.806167
0.249124
-0.727355
0.117247
-0.854134
0.711957
0.084461
0.557291
0.827851
0.857212
0.210866
0.040759
-0.978480
0.966819
-0.960799
0.769458
0.787519
0.824749
0.899749
0.028637
0.057925
-0.465886
-0.884719
0.219053
-0.711253
-0.761263
0.387668
0.799106
0.371838
0.976321
0.058301
0.613951
0.221601
0.330881
-0.285889
0.395192
0.027011
0.787943
-0.063646
-0.128203
0.631733
-0.831731
0.910707
0.638848
-0.864479
0.953464
0.431526
0.915160
0.798333
0.348545
-0.056203
-0.174671
0.864300
0.057813
-0.940575
-0.846522
0.307260
0.453021
0.943679
-0.306485
0.427389
-0.013527
-0.726286
-0.340060
-0.670396
-0.040929
-0.973019
0.379530
-0.222714
-0.025349
-0.756335
-0.599368
0.123980
-0.836042
-0.948007
0.259009
-0.874872
0.486831
0.171767
0.924018
-0.175739
-0.895024
-0.241625
-0.309588
0.154881
-0.181435
-0.156127
-0.537210
-0.727826
-0.228378
0.127106
0.699364
0.771117
0.424235
-0.661202
-0.900124
-0.617505
-0.616898
0.472986
0.159533
0.341334
0.716753
0.558463
-0.500403
0.870888
0.611245
0.746097
-0.989300
0.097092
-0.071635
0.905280
0.910614
0.027747
-0.332875
-0.395132
-0.812684
0.482843
0.435169
-0.338380
0.759077
-0.789556
0.804901
0.460196
0.962094
0.221464
0.816589
-0.913445
0.609703
-0.813267
0.549562
-0.234136
0.576340
0.262475
-0.675737
-0.941151
0.161088
0.919680
0.794319
0.155656
0.033710
-0.290732
0.081992
-0.057537
0.722611
0.749550
0.550901
0.933132
0.224515
0.006195
-0.387961
-0.016409
0.185716
-0.601412
-0.557480
0.162859
0.620481
-0.730180
0.255339
0.221281
-0.529041
-0.197051
0.971643
-0.986448
-0.923618
-0.691852
-0.956344
0.209306
-0.749257
0.868241
-0.623718
0.276798
-0.430887
0.439337
-0.771147
-0.695757
0.188393
0.787460
-0.759299
-0.589497
-0.205788
-0.158376
0.383515
0.988942
0.242063
0.818121
0.152572
-0.137475
-0.911410
-0.591501
-0.932126
-0.469647
0.211246
-0.947468
-0.432678
0.267112
-0.640165
-0.389840
-0.506258
-0.395842
-0.521852
-0.146398
0.881053
0.045562
-0.672781
-0.899917
0.350595
0.503104
0.902227
0.590316
0.924119
-0.332993
-0.578803
0.302029
-0.340582
0.667104
0.124840
0.809144
-0.483945
0.224942
-0.778299
-0.412409
0.771473
0.434706
-0.379354
-0.668879
-0.280575
0.005064
-0.052968
0.200198
0.599245
0.421801
-0.897928
0.476457
-0.532696
-0.587797
0.604261
0.802073
0.904680
0.490360
0.409324
0.815376
-0.821581
0.828673
0.103006
-0.161724
0.499336
-0.748956
-0.360473
-0.964493
0.493273
-0.138772
-0.407828
0.246394
-0.705334
0.227867
0.577946
0.024781
-0.761147
-0.483930
-0.760603
0.836154
0.922370
-0.692278
0.323556
-0.598084
-0.308827
-0.100331
-0.773096
-0.373877
-0.598653
0.628568
-0.566887
-0.439178
0.466829
0.548627
0.398592
-0.026135
0.802997
-0.964288
0.009931
0.285158
-0.113634
0.611119
-0.466601
0.173114
-0.160243
-0.888675
-0.801446
0.079201
-0.388535
-0.591244
-0.084849
-0.453149
-0.260106
-0.781793
-0.052081
0.430257
0.135186
0.168412
-0.943870
0.520117
-0.202923
-0.512458
-0.884776
-0.745919
-0.963042
0.501307
0.242631
0.838973
0.547532
-0.776879
0.113385
-0.571713
0.837712
0.650627
0.606088
-0.325371
0.748381
0.816159
0.757892
-0.636501
-0.758911
-0.325196
-0.109115
-0.026690
-0.089383
0.863390
-0.590689
-0.967156
0.021818
-0.537930
0.601237
0.815066
-0.050453
0.699373
-0.903143
-0.029322
0.190056
0.323358
-0.173415
-0.275837
0.567541
0.938121
0.138053
0.405694
0.592304
-0.232647
-0.927562
0.360808
-0.399218
0.830330
0.693390
-0.176481
-0.496133
-0.400684
0.797260
0.425182
-0.531373
-0.802335
0.472439
0.488498
-0.355771
0.039924
0.314499
0.606024
-0.289455
0.383204
-0.400382
0.930873
-0.282113
0.418547
-0.353360
-0.733512
0.366250
0.797204
0.671677
-0.033743
-0.432131
0.741708
-0.672381
0.157536
0.561454
-0.969976
0.982906
-0.942588
-0.369885
0.780145
0.483245
0.099330
0.961882
-0.073521
-0.412371
-0.380868
0.989823
0.881625
-0.775688
-0.300442
0.282149
-0.182486
-0.369823
-1.016393
-0.763848
0.275120
-0.715622
0.592576
0.073115
0.943545
-0.426483
0.640001
0.695765
-0.128288
-0.213207
0.251619
-0.094799
-0.226458
0.313719
0.532468
-0.459884
-0.191522
-0.364141
-0.494339
0.751138
0.225248
0.105319
0.733288
0.124477
0.354214
-0.561410
-0.606340
-0.838257
0.065396
-0.574452
-0.605934
-0.659547
-0.307161
-0.985649
0.397738
-0.374242
-0.428260
0.054673
-0.691901
0.464498
0.839618
0.545314
-0.629871
-0.383278
-0.117747
0.894717
0.176955
0.707997
-0.469424
0.651688
0.440790
0.754554
-0.227950
0.174507
-0.110279
-0.867817
0.604195
0.297803
-0.708020
-0.345915
0.689599
-0.303021
0.006785
-0.646309
-0.316822
-0.572562
0.009713
0.266243
0.474456
0.309418
-0.288202
0.323656
-0.132740
0.081431
0.948076
0.752815
-0.026253
0.125589
0.449707
0.493742
-0.213703
-0.107655
0.240382
0.559103
-0.933167
-0.869239
0.691885
0.655099
0.399362
0.983664
-0.677795
0.112375
-0.339864
0.328142
0.465251
0.360636
0.749164
-0.525288
-0.389542
0.223716
0.782435
0.356538
-0.462455
-0.349527
-0.574537
-0.499692
-0.597691
0.409716
0.596454
0.841269
-0.102144
-0.613786
-0.262546
-0.857075
0.942485
-0.209282
-0.714797
0.638428
-0.550529
0.700740
0.623845
-0.247790
-0.194555
-0.698420
-0.895061
-0.723561
0.649263
0.844123
-0.252221
-0.692006
0.064000
-0.469849
0.647445
0.629267
0.164798
-0.937719
-0.886554
0.584042
0.458578
0.730963
0.423453
-0.657971
-0.882390
-0.835526
-0.491826
-0.947785
-0.024683
-0.189356
0.690643
0.393865
-0.506966
0.313223
-0.838882
0.298908
0.625515
-0.728020
0.566443
0.289190
-0.885842
-0.701277
0.563432
0.189101
-0.158883
0.182125
-0.209780
-0.971169
0.274675
-0.085020
0.605212
-0.275138
-0.372996
0.038265
0.079419
-0.255879
0.210440
0.590895
-0.206066
-0.813691
-0.609569
-0.526011
0.589193
-0.114688
0.779304
0.751080
-0.815800
0.405468
-0.976341
0.734715
-0.334544
-0.862385
-0.953547
-0.747694
0.306209
-0.113277
0.433620
-0.886248
-0.090859
-0.291955
0.012318
-0.485549
0.431211
0.673601
0.542888
-0.488592
-0.594787
-0.231986
-0.898676
0.209649
-0.075102
-0.518993
0.678045
-0.482445
0.370160
0.462038
-0.734205
0.540790
-0.120980
-0.706488
0.279167
0.560655
-0.567120
0.306143
0.805286
0.756689
-0.782545
0.244655
0.857484
0.116613
0.949326
-0.081920
0.627235
0.380472
-0.425415
0.197837
0.876054
-0.030827
0.949716
0.994313
-0.834596
-0.104344
-0.526528
0.829045
0.413651
0.847189
0.314302
0.671559
0.408102
-0.789411
0.965071
-0.343660
0.752898
-0.603314
0.977529
0.558616
-0.835913
-0.799093
-0.205636
-0.964024
0.315573
-0.271818
-0.079699
-0.046259
-0.879098
0.466133
-0.876575
-0.980129
-0.534422
-0.915538
-0.993476
-0.377414
-0.038820
-0.510419
-0.535850
-0.625667
-0.655524
0.781765
-0.956516
0.753133
0.981250
-1.002025
-0.581509
0.735994
-0.613252
-0.603211
0.294590
-0.448516
-0.401707
-0.926977
-0.441736
0.913668
-0.185775
0.501982
-0.153098
-0.065720
-0.032690
-0.012356
-0.052261
0.432629
0.055696
-0.045640
-0.946480
-0.948845
0.434115
-0.481543
-0.587023
0.793278
-0.700758
-0.533026
0.516972
-0.730257
-0.540656
0.938935
-0.990419
-0.149217
-0.667108
0.290598
0.413779
-0.064755
0.367283
0.988222
-0.149329
-0.837969
0.482530
0.715169
0.120897
-0.544420
-0.310140
-0.941346
0.884839
0.793829
0.009174
0.938293
0.827896
-0.528988
-0.559077
-0.769753
-0.751839
-0.242900
-0.316202
0.786196
0.024983
0.128745
0.725565
0.038137
-0.997276
-0.949424
-0.651152
0.433790
-0.014179
0.685208
0.403660
0.835222
0.862281
-0.113381
0.561102
-0.010891
0.333299
-0.734628
0.045809
0.202628
-0.974545
-0.934058
0.153169
0.824606
-0.491209
0.617008
-0.914881
-0.231725
-0.633552
-0.239477
-0.464473
0.401030
0.901778
-0.739400
-0.553135
0.907828
-0.691231
-0.203726
0.330506
0.284011
-0.509507
-0.263987
0.111318
-0.646457
0.622614
-0.326930
0.343244
-0.060017
-0.090758
-0.611143
-0.844368
-0.041885
-0.565717
0.307954
-0.218090
-0.039611
-0.081451
-0.133229
0.712246
0.285095
0.625596
-0.717942
-0.323703
0.528163
-0.469849
0.137849
0.435008
-0.150578
0.904680
-0.245231
-0.872165
-0.601355
0.494623
0.243843
-0.250645
0.103668
0.928428
-0.903341
-0.952695
-0.146147
-0.512731
-0.816531
0.804292
-0.060839
0.516011
-0.408055
0.886589
-0.575423
0.455341
0.647111
0.705843
0.080874
0.912081
-0.590148
-0.406791
-0.568397
0.531571
-0.954847
0.267609
0.457311
-0.201938
0.381051
0.856392
-0.703746
-0.351899
-0.402132
0.420045
-0.406201
-0.305473
0.436429
0.429296
0.180532
0.634943
0.234017
-0.869607
0.156882
0.817057
-0.968612
0.579510
0.256893
0.644753
0.296286
-0.649985
0.528089
0.677988
-0.033857
0.989958
0.220880
0.003630
0.249173
-0.340750
0.811290
-0.357261
-0.484851
-0.884750
0.294142
0.110614
0.535849
0.876831
0.794554
-0.018696
0.307972
-0.032823
-0.382984
-0.458027
0.098220
0.774485
-0.656900
0.100408
0.353793
0.613014
-0.231421
-0.370427
0.962184
-0.704149
-0.675114
-0.078093
-0.714443
0.529340
0.925638
0.533033
-0.777125
0.727104
-0.823449
-0.274482
0.857038
0.469711
0.846639
0.363459
0.335795
0.635593
-0.651783
-0.352392
-0.392541
-0.037610
0.176011
0.717195
-0.259064
0.522764
-0.166214
-0.903517
0.116313
0.594689
-0.256334
0.103078
0.896287
0.055580
-0.984996
-0.821526
-0.366792
0.936813
0.711442
-0.161011
0.691627
0.872165
0.553875
0.532536
0.358811
0.387091
-0.082959
-0.307252
0.008284
0.265704
0.343929
0.638945
-0.779790
-0.459943
0.373425
-0.038854
-0.968097
-0.811145
0.056364
0.163259
0.783975
0.810732
-0.727742
0.671357
-0.119269
-0.714683
0.834329
0.480175
-0.766925
0.558013
-0.709584
0.896540
0.453094
0.874558
0.440399
-0.195757
0.253255
-0.661495
0.506586
-0.725947
0.603705
-0.141784
0.916324
0.821508
0.398827
0.278637
-0.227922
0.439755
0.469339
0.820524
-0.396223
0.253295
0.631905
-0.123376
-0.091277
-0.516568
0.161740
-0.243932
0.987022
0.374299
-0.686764
-0.723380
0.288159
0.759910
-0.849074
-0.287863
-0.435745
0.402484
0.084918
-0.938981
0.677327
-0.323884
-0.066079
0.592669
-0.491871
-0.696693
-0.139440
0.274601
0.746524
-0.666258
0.099817
-0.652539
0.573464
-0.256767
0.228146
-0.514160
0.242846
-0.608359
0.222443
0.222193
0.783540
0.560262
0.504557
0.058743
0.310192
0.652113
0.819156
0.870619
0.054533
-0.113013
0.959347
-0.283969
0.552473
-0.122863
-0.674365
-0.952817
0.201501
0.184335
0.307392
-0.051520
0.521643
-0.569601
0.288046
0.115231
0.190917
-0.483809
0.570152
-0.584590
-0.093432
-0.192361
0.638031
-0.299182
-0.626180
0.133686
0.773972
0.682067
-0.229711
0.559382
0.563631
0.837070
-0.582377
0.494814
-0.423983
1.000364
-0.616727
-0.106010
-0.960845
0.565842
-0.912079
0.359058
-0.486192
0.617270
0.792774
0.799448
-0.266945
-0.027424
-0.694945
-0.687778
0.389839
0.203715
0.120633
0.027856
0.905183
0.495042
-0.854395
0.649961
0.176907
-0.071084
0.232756
-0.279979
-0.234861
0.649562
-0.767838
0.334737
0.649672
-0.400988
-0.771170
0.687127
-0.800870
-0.693072
0.046965
-0.299568
0.938883
-0.161248
-0.489615
-0.357491
0.800591
-0.190157
-0.041800
0.194274
-0.981754
-0.924015
-0.791448
0.934946
0.575087
-0.642190
0.601080
-0.246245
0.267258
-0.173833
0.491381
-0.943015
-0.518527
0.710575
0.381744
-0.872225
-0.642140
0.606745
0.814837
-0.460096
0.941383
-0.154028
0.229708
0.864136
0.701663
0.726671
-0.472306
0.500406
-0.477878
0.486330
-0.301759
-0.436424
0.554428
-0.073088
-0.484208
0.129515
0.253800
-0.901480
0.882001
-0.463894
-0.074887
0.384082
-0.400982
0.397686
0.109074
0.978810
0.509957
0.433179
0.596500
0.337036
0.944336
0.509721
-0.794077
0.204305
0.385180
0.899926
-0.077416
0.893938
0.409920
0.457222
0.379762
-0.884141
-0.975900
-0.068214
0.043326
-0.471220
-0.949285
-0.693858
-0.370853
0.924808
-0.156980
0.554242
0.309540
0.442624
-0.064002
-0.610589
0.421233
-0.541030
0.846005
-0.002787
0.795161
0.789523
-0.475743
0.994665
-0.006421
0.893013
0.894692
0.914466
0.821230
0.294784
0.372466
0.188484
0.425330
0.395586
-0.869221
-0.560784
0.913620
-0.824105
-0.251163
-0.453391
-0.894609
0.589012
-0.912718
0.426445
0.035696
0.026946
0.832032
-0.541316
0.466436
0.670363
0.473510
0.286183
0.465635
0.984803
0.270868
-0.544160
0.926093
0.161716
-0.629758
0.730234
-0.515773
0.726881
-0.091908
0.893429
0.139403
0.025447
-0.646293
0.051162
0.186945
0.102986
0.601341
0.315547
-0.315897
0.708743
-0.240737
0.719799
-0.295240
-0.427054
-0.822781
-0.813760
-0.756260
0.661431
0.478351
0.700467
0.660640
-0.252733
-0.859194
0.552986
0.919944
-0.476711
0.254468
-0.623990
-0.726915
-0.807168
-0.719241
0.404833
0.209885
-0.384478
-0.534413
-0.590661
0.718001
-0.925365
0.728199
-0.600303
0.783936
-0.523647
-0.891088
-0.502287
0.051145
-0.721778
-0.315270
0.294866
0.940301
-0.836333
-0.020596
0.571747
-0.089270
0.133226
0.148146
-0.189842
0.655670
-0.598195
0.203483
0.922337
-0.405616
0.467830
0.327266
0.802572
-0.882366
0.783030
-0.787299
0.823125
0.872349
0.939918
-0.766665
0.626846
-0.594477
-0.663354
-0.871969
0.460509
-0.380444
-0.190081
-0.258195
-0.428628
-0.022353
0.724863
-0.840706
0.890134
-0.161377
0.299768
-0.282096
-0.481123
0.707320
0.908430
-0.568766
-0.701666
0.424541
0.754671
-0.899158
0.525079
0.565411
-0.702287
0.337580
0.421631
-0.745434
0.557490
0.069534
-0.341769
0.879731
0.198019
-0.877692
-0.477493
-0.999953
-0.115763
0.111150
-0.022306
-0.421822
0.252094
-0.133436
0.431846
-0.447707
0.595169
0.956643
-0.749291
0.518005
-0.614068
-0.466464
-0.091209
-0.848452
-0.353375
-0.594875
0.688797
-0.032742
0.772970
0.121743
0.214158
0.322064
-0.827649
0.881985
0.214324
0.369858
-0.988001
0.740134
0.367503
-0.103208
-0.159831
-0.665392
0.483994
-0.905886
0.193265
-0.083396
-0.353610
-0.210919
-0.126162
-0.118831
-0.722109
0.259569
0.427726
0.210096
0.390599
-0.926493
0.614405
0.096711
0.034345
0.387122
-0.797957
-0.751398
-0.292510
-0.591327
-0.879236
0.922594
0.766022
-0.852554
0.661746
0.144027
0.014812
-0.508828
0.473042
-0.497740
-0.410872
-0.329007
0.416015
0.221948
0.471589
-0.706085
-0.893230
0.765656
0.555238
0.515029
-0.031919
-0.036552
0.613121
-0.411765
-0.952800
-0.362517
0.971983
-0.702481
-0.117754
-0.320591
-0.310894
0.030735
-0.413824
-0.555499
0.162047
-0.735144
0.575111
-0.802093
-0.245830
0.033753
-0.299400
0.346873
0.727947
-0.891270
-0.411063
0.216819
-0.597355
-0.335213
-0.035873
0.956618
-0.805139
0.932639
-0.069243
0.813905
-0.488033
-0.007618
-0.550557
-0.531553
0.256146
0.342632
0.160099
0.916505
-0.654788
0.769189
-0.608728
0.518580
-0.973615
0.957994
0.697549
-0.209844
0.004265
-0.602355
-0.855276
-0.264473
-0.496028
-0.265783
0.941239
-0.103961
0.408031
-0.092788
-0.155261
0.603651
-0.160167
0.776153
0.418153
0.335867
-0.260670
0.867397
0.817330
-0.981107
0.189521
-0.023419
0.934579
0.552059
-0.260647
-0.674401
0.054219
-0.234159
-0.718108
-0.213959
0.546170
0.286933
0.171177
0.705578
-0.978519
0.685655
-0.589644
0.951972
-0.423917
0.821849
-0.136972
0.425510
0.422665
0.689287
0.213177
-0.155120
0.028821
0.968685
-0.285967
-0.173328
0.979904
0.921152
0.827839
0.920230
0.460249
-0.442786
-0.757541
-0.437250
0.319215
-0.475715
0.331697
-0.106889
0.795392
-0.507755
-0.417445
0.833808
-0.835523
0.013967
0.783932
-0.273832
-0.163730
-0.349478
-0.825129
-0.748957
-0.640077
0.405336
0.095923
0.357814
0.355669
0.808689
-0.800472
0.336004
0.740553
-0.966709
0.247332
0.215221
-0.411442
0.474282
0.744208
0.918731
-0.989185
0.047150
-0.216324
0.829122
0.569670
0.377553
0.655270
0.725757
-0.627413
0.448790
-0.535573
0.208343
-0.892990
-0.357376
0.456985
-0.532509
-0.963150
-0.457675
0.834322
0.394365
-0.656900
-0.965380
-0.269650
-0.915698
-0.931490
0.961751
0.270318
-0.343133
0.449054
0.037942
-0.444919
0.459021
-0.915716
0.356077
0.281727
0.653701
-0.282792
-0.062900
0.377757
0.124071
-0.623936
0.842974
-0.680094
-0.502241
-0.515384
0.787399
-0.064174
-0.489281
-0.675881
-0.226388
0.908926
-0.328092
-0.194609
-0.374296
-0.232276
-0.122039
-0.408883
-0.945780
0.536583
-0.979306
0.084491
-0.890736
0.504304
0.174523
0.452383
-0.223948
-0.175150
-0.782132
0.709323
-0.797456
0.324853
-0.886903
-0.970311
0.634131
-0.405273
-0.468760
0.408108
0.551601
0.040097
0.717823
-0.674360
-0.047403
-0.587064
0.123154
0.598414
0.197944
-0.998886
-0.841392
0.233815
0.536433
-0.805656
-0.681264
0.656408
0.704571
0.484353
0.123210
-0.521322
-0.706299
0.307323
-0.801054
-0.491514
-0.396578
-0.716119
-0.438909
-0.732173
-0.110077
0.084669
0.667545
-0.577408
-0.865636
0.397890
-0.252267
0.094660
0.814143
0.868481
-0.306368
0.000972
0.859011
-0.138736
-0.763359
0.387539
0.056374
-0.444642
0.044592
-0.238464
-0.976220
-0.861402
0.240011
-0.669504
0.469336
0.418441
-0.161864
-0.928053
0.719646
0.392807
-0.660479
-0.406849
-0.522421
-0.994635
0.050019
-0.397883
0.404033
0.785244
0.711464
0.217193
0.664237
-0.624342
-0.792572
0.517647
0.240390
-0.552087
-0.090127
-0.706081
-0.010303
0.965979
0.059515
0.017143
-0.879250
-0.698719
0.328158
0.582412
0.737322
-0.809119
0.660105
0.444006
0.573709
0.996256
-0.914566
-0.952540
-0.998443
0.118366
-0.322710
0.389764
-0.107016
-0.627375
-0.376105
-0.456204
-0.230660
-0.170536
-0.952961
1.010166
0.280949
-0.019870
-0.703797
-0.709240
-0.036623
0.355718
0.276973
0.065777
0.655735
-0.379821
-0.351381
0.403766
-0.183015
-0.700179
-0.137808
-0.611255
-0.719425
-0.086128
-0.552850
-0.705626
-0.996508
0.096279
0.707053
-0.073262
0.480226
-0.676712
0.462142
-0.769368
0.162353
0.521700
-0.759702
-0.549002
-0.494860
-0.465902
-0.257684
0.457407
0.879227
-0.971693
-0.474969
0.527053
-0.350740
0.173633
-0.068530
0.466829
0.457523
0.764459
0.855375
0.751114
-0.298253
-0.717992
-0.955357
-0.295579
0.395603
0.745277
0.630908
-0.140590
-0.931333
0.091351
0.124315
0.221188
-0.386159
0.352106
0.686874
0.117999
0.896710
-0.600249
-0.435337
0.770337
-0.568470
0.093535
0.302079
0.077947
-0.746404
-0.754935
-0.451161
0.714773
-0.974302
-0.594033
0.446419
-0.280230
-0.294418
0.515647
0.429940
-0.911779
0.250945
0.057474
-0.004088
0.315771
-0.851236
-0.896870
-0.435315
-0.253222
0.444609
-0.764570
0.881716
0.327894
-0.343760
-0.555470
0.083832
0.088222
0.541622
-0.590890
-0.841724
0.815338
-0.328540
-0.292885
0.499194
-0.321193
0.111817
-0.039340
0.399008
0.828101
-0.517772
-0.179957
0.930728
0.731227
0.862014
-0.107116
0.057941
-0.976980
-0.032739
0.594478
-0.207284
-0.557857
0.841228
-0.333225
0.761647
-0.521466
0.120889
-0.142004
0.566243
-0.329787
0.270423
0.722112
-0.513891
0.930773
-0.581357
0.994320
-0.388574
0.522551
-0.044247
1.010410
0.351301
0.438571
-0.185473
0.252832
0.169596
-0.310444
-0.830867
-0.792963
-0.288272
0.135590
0.818837
0.498025
0.577474
0.643638
-0.835102
0.337419
-0.843549
0.275956
-0.803804
0.710184
0.960856
0.465637
0.442804
-0.582474
0.385664
0.855851
-0.584682
-0.999062
0.383091
0.368230
0.997776
-0.254094
-0.189138
-0.184035
-0.985084
0.982214
0.486043
-0.823624
-0.793151
-0.777640
0.317709
-0.987272
0.710407
-0.108190
0.704642
0.871475
-0.770834
0.844005
0.175148
-0.590467
0.543563
0.119871
0.892106
-0.027052
0.558460
0.275912
-0.185598
0.974212
0.280416
-0.779309
0.334564
0.298308
-0.016117
-0.854574
-0.916653
-0.019552
-0.873624
0.584432
0.157253
-0.656063
0.812716
-0.533944
-0.628930
0.521177
0.342360
-0.958034
0.403586
0.583773
0.857226
-0.449422
-0.983778
0.431051
0.681772
0.900668
-0.604386
0.221288
0.186179
0.222531
0.195007
-0.525709
0.446538
-0.472830
0.773153
-0.580689
-0.337987
0.865515
0.401605
-0.219523
0.450724
-0.441159
0.125060
0.264029
0.008968
0.466935
-0.214995
-0.635651
0.532318
-0.831911
0.947277
0.388727
-0.264013
0.957080
-0.180471
-0.598664
0.857849
0.213439
0.656910
0.034195
-0.563248
-0.160589
0.523175
0.882308
0.377083
0.266901
-0.709128
-0.966505
0.135884
0.696321
-0.181340
-0.416240
-0.758411
0.955236
0.851851
0.254220
0.438353
-0.361385
0.599091
-0.037009
-0.175690
0.570954
-0.642538
0.547330
0.518055
0.173620
0.996943
0.372063
-0.613003
0.636766
-0.566015
-0.192080
-0.534452
0.941032
-0.292837
0.829213
0.228979
-0.003826
0.848304
-0.634704
-0.303932
-0.309818
-0.058822
-0.042224
-0.337312
-0.206971
-0.818933
-0.917318
0.430375
0.795200
0.046100
-0.734616
0.372084
0.394663
0.827121
-0.111815
-0.447226
0.790318
-0.728792
-0.047982
0.398331
-0.322970
0.782853
0.894153
-0.370613
-0.517643
0.714976
0.839431
0.488131
0.575792
-0.795770
-0.808103
-0.730714
0.143004
0.150230
-0.079141
0.925445
0.340318
0.005393
0.347915
0.136284
-0.948524
0.613945
-0.491046
0.430208
0.411870
0.396941
0.996003
0.225602
0.647633
-0.052826
-0.376875
-0.658013
-0.276390
-0.482976
-0.045048
0.206070
-0.769702
-0.171344
-0.315628
0.806880
0.020378
-0.109041
-0.924816
-0.826111
-0.988256
-0.014699
-0.906267
0.355532
0.994537
0.446334
-0.511030
-0.967559
0.071792
0.001984
0.466311
-0.500157
-0.599321
0.442837
0.717771
-0.934090
-0.585401
-0.653360
-0.605061
0.128231
-0.139707
0.398169
-0.669528
0.090527
-0.790271
0.042560
-0.118420
0.219480
0.917384
-0.026302
0.379944
0.950190
0.957150
0.459285
0.306155
0.955242
-0.071174
0.787238
1.007788
-0.982115
-0.210778
0.443187
-0.500620
0.188637
-0.098928
-0.782418
0.265256
0.321597
-0.444680
0.674603
-0.552123
0.400105
0.039018
-0.210718
-0.497120
0.219994
0.803688
0.407375
-0.530254
0.732392
-0.626588
0.841300
0.663645
-0.659853
0.313095
-0.030710
-0.696905
-0.754776
-0.245870
-0.688546
-0.747995
0.532764
0.763659
-0.246769
-0.286504
-0.334496
-0.029201
0.979399
0.987686
0.510183
0.624808
-0.564638
-0.076690
-0.312759
0.204135
0.425342
0.906424
0.025139
-0.173695
-0.624083
-0.258882
0.199814
-0.784484
-0.560962
0.530137
0.529391
0.395826
0.847916
0.773633
-0.839538
-0.870068
-0.985110
0.687626
0.897063
-0.228035
-0.594193
-0.440275
0.729187
-0.603277
-0.448529
0.243033
-0.962296
-0.011409
-0.853135
-0.282729
-0.789678
0.596796
-0.370555
0.222512
-0.586883
0.001988
1.011939
0.609102
0.217438
-0.566146
0.166952
-0.268998
0.819051
-0.001264
-0.478431
0.966090
0.149725
-0.465398
0.639312
0.047243
0.310137
-0.931676
0.599074
0.059443
-0.517675
-0.849455
-0.728453
-0.498316
0.137866
-0.566546
0.219385
0.358898
-0.963826
0.839924
-0.404175
-0.552654
-0.173595
-0.426024
-0.932608
-0.943908
-0.020923
0.206180
-0.189989
-0.171600
-0.783764
0.323923
-0.213901
0.347023
0.868114
-0.562072
-0.606241
0.185951
-0.490422
0.990426
-0.754053
-0.019208
-0.869614
-0.473481
0.484330
0.260347
-0.039261
-0.296302
-0.380108
-0.002496
-0.472308
0.186518
0.444649
0.367118
0.783908
0.491524
0.422362
-0.237819
-0.284977
-0.774046
0.590325
-0.085157
0.549973
-0.625274
-0.703855
0.408261
-0.186557
-0.322604
-0.391102
0.322039
-0.321673
-0.174580
-0.707909
-0.196883
0.355395
0.780265
-0.931851
-0.686711
-0.529610
-0.300445
0.314852
0.001747
0.902248
-0.238739
-0.650615
0.678483
-0.729621
0.796335
-0.553597
-0.027555
-0.987690
-0.966642
0.935562
0.558454
-0.591981
-0.785382
-0.005568
0.205633
-0.118613
0.587197
-0.455391
0.546293
-0.566334
-0.165159
-0.664994
0.789488
-0.381322
-0.573640
-0.905104
0.109186
0.143200
0.409749
-0.919998
0.027099
-0.830260
-0.555571
-0.293988
-0.549169
-0.753313
0.143514
0.437692
-0.742948
0.161362
0.339501
0.826451
0.581629
0.525374
-0.207283
-0.189820
-0.562974
-0.608767
0.347132
0.974929
-0.194045
-0.808437
-0.677552
-0.405049
-0.182058
-0.247866
-0.312555
0.927681
0.884227
-0.913394
-0.983302
-0.086828
-0.751563
-0.538105
0.619164
-0.300083
-0.290820
-0.253252
-0.891591
-0.033972
0.921131
0.471325
-0.228037
0.501914
-0.004114
0.582004
-0.694325
0.432653
0.956811
0.652903
0.405880
-0.202948
0.834643
0.729118
0.379496
-0.332731
-0.519729
-0.922553
-0.434478
-0.646250
-0.841547
-0.414312
0.270763
-0.588422
0.044741
-0.123641
0.123009
0.757983
0.626760
0.247599
-0.274228
0.528423
-0.288755
0.515333
0.054923
0.712872
0.084375
0.350620
0.142154
0.089475
-0.000318
-0.452030
0.869430
-0.137950
-0.738739
0.238300
0.513186
-0.241533
0.302321
-0.900240
0.110356
0.446381
-0.314119
-0.615310
0.881153
0.722738
0.281171
0.021449
0.480722
-0.122991
-0.749307
-0.794774
-0.579522
-0.037634
0.731270
0.481332
-0.333661
-0.169936
-0.170001
0.792990
0.885775
0.840639
-0.646798
0.726460
-0.325478
-0.362621
-0.004978
-0.800969
0.388190
-0.711045
-0.720147
-0.491859
0.747838
-0.034775
-0.099466
0.632317
-0.314435
-0.817740
-0.357345
-0.844301
0.068296
-0.104804
-0.646984
0.489543
0.857545
-0.915065
-0.028541
-0.492047
-0.114209
0.801261
-0.686042
-0.205016
0.621383
-0.333687
-0.479371
-0.686771
0.297274
0.515399
-0.504166
-0.314439
0.802653
-0.190034
0.183873
0.551280
0.762686
-0.900905
0.182611
-0.541240
-0.748083
0.814524
-0.391141
0.323684
-0.286439
-0.033434
-0.189623
-0.442463
0.063012
0.785898
0.069154
0.964984
0.588912
0.363633
-0.247702
0.227905
-0.945465
0.278673
0.528164
0.341830
-0.209302
-0.927726
-0.976437
-0.406714
-0.134846
0.235153
-0.871262
-0.382787
0.318116
0.328289
0.062549
0.591095
0.140954
0.657003
-0.084780
0.858083
-0.353214
0.717705
-0.564261
0.727064
0.503603
0.473965
0.673703
0.091250
-0.147353
-0.573569
-0.670146
-0.086893
0.696196
0.872423
-0.747014
-0.528607
0.910951
-0.712506
0.076922
-0.252650
0.494479
0.228578
0.394832
-0.176083
-0.450790
-0.551005
-0.603925
0.699754
-0.881489
0.310781
0.565544
-0.231391
0.026083
1.001847
-0.515431
-0.480896
0.484834
-0.839882
0.602440
-0.661764
-0.413471
0.932943
0.251935
-0.733204
0.776172
0.504722
-0.248795
0.710538
0.771699
0.827282
-0.542923
0.283498
0.049443
0.851660
-0.909006
0.598745
-0.701046
-0.478653
0.288674
-0.581746
0.819619
-0.131094
0.185877
-0.143795
-0.158680
0.659703
0.369710
-0.670397
0.823665
-0.023158
-0.334995
-0.603379
-0.078704
0.921002
-0.332921
-0.286348
0.427480
0.398807
-0.583491
0.216786
0.250677
-0.120662
-0.512681
-0.709866
-0.272379
-0.373404
0.885051
0.026512
0.130850
0.201441
0.428938
-0.060158
-0.945787
-0.368245
0.782629
-0.083424
-0.710391
0.137942
0.246633
-0.883171
-0.862021
0.903746
-0.466427
0.076562
0.824748
0.169723
0.771855
0.250961
-0.416422
-0.811204
-0.521554
0.840173
0.059228
-0.019821
-0.871638
0.771346
0.573012
-0.975642
-0.189900
-0.324893
0.197634
-0.738047
0.645221
0.263169
-0.113952
0.419455
-0.839188
0.185247
-0.430082
0.406932
0.309778
-0.288786
0.308277
0.843906
0.776666
0.122447
0.022655
0.550368
-0.634511
0.606991
0.739143
-0.155416
0.447761
-0.217561
0.795560
0.575925
-0.433199
0.391987
0.579766
0.376053
-0.933717
-0.205289
0.631591
0.711251
-0.958539
-0.482260
0.129008
-0.763448
0.693160
0.699708
0.630975
0.017624
-0.590059
-0.050247
-0.167898
-0.824141
-0.933403
0.858208
0.730070
-0.563226
0.462365
0.455642
0.292872
-0.085812
-0.758265
0.104609
-0.508135
-0.210930
-0.511079
-0.910772
-0.810291
-0.439048
-0.129009
0.811320
-0.731170
-0.039262
-0.674768
0.397775
0.180196
-0.953899
0.081656
-0.199456
0.047594
0.508531
0.736879
0.900746
0.682541
0.789072
0.759388
0.416173
-0.750950
0.213875
-0.108067
0.559203
-0.871938
0.102744
-0.354535
-0.381337
0.906859
0.134814
-0.281399
-0.897509
0.686861
0.603999
0.911867
0.940190
-0.469018
-0.751956
0.350208
0.682430
-0.734017
-0.545222
-0.486765
0.324901
0.955649
-0.758272
0.206700
0.647775
-0.956687
-0.034408
0.071648
-0.704310
-0.822936
0.964134
0.843789
-0.705458
0.075906
-0.508900
-0.094705
-0.016468
0.625896
0.624547
0.086614
0.296829
0.199353
-0.001723
0.250035
0.753749
0.225805
-0.400606
0.435363
0.509114
0.047760
0.948348
-0.182409
0.003506
-0.811625
-0.941428
-0.358544
-0.767523
0.011661
0.727790
-0.472816
0.199229
0.662486
-0.639774
0.488177
-0.258136
-0.144831
-0.601839
0.722550
-0.532506
-0.965775
-0.186776
0.767976
0.249758
0.813259
-0.001454
-0.004172
0.056677
0.622525
-0.563066
-0.447182
-0.339699
-0.618088
0.418692
0.659978
-0.429779
0.460169
-0.670854
-0.213130
-0.538800
-0.959192
0.330991
0.647013
0.724357
0.689368
0.120791
-0.533353
-0.451902
0.542152
-0.818684
0.035711
0.593656
-0.005460
-0.227236
-0.174938
-0.193465
0.786351
0.821320
0.873912
0.414805
-0.750650
-0.558861
-0.926845
-0.384245
0.826077
0.744078
0.198225
0.257493
-0.954937
-0.991989
0.748967
-0.902809
0.331347
0.387585
0.802610
0.030299
-0.479102
-0.731241
0.586094
-0.933632
-0.552332
-0.377643
0.648920
0.431630
0.404149
-0.524173
-0.769750
0.191265
-0.702873
-0.895189
-0.393345
-0.469451
-0.483245
-0.320391
0.159325
-0.633751
-0.596828
-0.643295
0.622931
-0.534443
-0.641703
0.371646
-0.453675
0.689740
-0.242468
-0.616789
-0.289791
0.279210
-0.360537
-0.689011
0.344597
0.097634
-0.096077
-0.017230
-0.476335
-0.688481
0.462438
-0.241395
0.499948
0.745996
-0.125071
-0.889339
-0.719802
0.407869
-0.207970
0.420055
0.766437
0.212807
0.801346
0.395117
0.665393
-0.850337
-0.236612
-0.740009
0.835574
0.520859
-0.373884
-0.426504
-0.215758
0.254950
-0.131644
-0.854225
-0.660834
0.793326
0.126686
-0.151566
-0.894722
-0.407301
0.630235
0.597344
-0.641191
-0.477549
0.708005
-0.391910
0.911961
-0.501235
-0.956811
0.678829
0.722271
0.850458
0.065041
0.402076
0.998176
0.812926
0.628315
0.844695
0.346026
-0.774316
-0.609972
-0.846816
0.510899
0.269707
-0.708701
0.841675
0.044086
0.427583
-0.297376
0.148871
-0.972020
-0.663825
-0.256186
-0.612654
-0.152489
-0.558769
0.004462
-0.238677
-0.067914
0.048419
-0.559869
-0.344994
-0.100532
0.489241
-0.972118
-0.102559
0.315182
0.679612
-0.278379
-0.339639
0.904478
0.128963
-0.192867
0.415125
-0.617748
0.098529
0.255098
0.460623
-0.483716
0.958502
-0.403010
-0.441049
-0.706305
0.351305
-0.083126
0.130464
0.786940
0.924784
0.895630
-0.276285
-0.029638
-0.677811
0.390235
0.873892
0.815084
0.434300
-0.226904
0.110801
0.106232
0.512311
0.795748
0.016461
-0.371677
-0.407103
-0.571791
0.058865
0.687596
0.683243
-0.497608
-0.768407
0.625916
0.088754
-0.225585
0.936546
-0.573361
0.712336
0.065149
-0.800826
0.637554
-0.035647
-0.053891
-0.399961
0.306658
-0.646390
-0.526069
0.090820
0.769557
0.245757
-0.783335
-0.123783
-0.231229
-0.981664
0.883770
0.411519
-0.390715
-0.703523
-0.563377
-0.692172
0.991962
-0.089739
-0.488743
0.640793
-0.970712
0.296997
0.569679
-0.552463
-0.009613
-0.355572
-0.340767
-0.372551
0.616478
0.608644
0.225085
-0.076306
0.951150
0.688429
-0.976469
0.722553
-0.073724
-0.759036
-0.401246
0.695706
-0.740101
-0.533406
0.078020
-0.131018
-0.223913
0.538063
0.156293
-0.232798
-0.552487
0.684878
-0.598422
-0.523451
-0.034547
0.971359
-0.077619
0.990119
-0.394040
0.582397
-0.394938
-0.762875
0.190055
0.840653
0.131391
0.130462
0.523481
0.158386
-0.143142
-0.545554
0.396510
0.442039
-0.838331
0.660470
0.912286
0.255875
-0.468789
-0.331096
-0.213741
0.705102
0.460695
0.239520
0.377018
0.852293
0.712695
-0.609256
0.819824
-0.364987
-0.636225
-0.546504
-0.798418
-0.041791
-0.325509
0.408576
-0.214563
0.826932
-0.462820
-0.705486
-0.014238
0.397609
-0.227820
-0.625623
-0.140235
-0.048882
-0.965153
-0.258870
-0.811365
-0.435210
0.425082
-0.024680
-0.719397
-0.108297
-0.794065
0.672031
-0.257957
0.903128
-0.970971
-0.427198
-0.449616
-0.635941
-0.001851
-0.225116
0.352529
0.683959
-0.824202
-0.870420
0.491947
-0.277425
-0.563393
-0.522799
-0.872118
0.212099
-0.150825
-0.011797
-0.847893
-0.126557
0.738349
-0.657412
0.430319
0.164203
0.317892
0.711567
-0.943506
0.507897
0.354402
-0.201665
0.424040
0.406848
0.350632
0.973580
0.770088
-0.633896
-0.257958
0.122369
-0.966363
-0.082058
0.250247
0.559869
0.630692
0.687644
-0.975440
0.773257
-0.101242
-0.115764
-0.267970
0.040120
0.752077
-0.526159
0.386550
0.187082
0.635206
-0.309129
-0.089838
0.695758
-0.797579
-0.719258
-0.504151
0.606994
0.679916
0.864081
0.605159
0.455753
-0.782773
-0.662778
-0.425254
-0.700860
0.251324
0.824931
0.841922
-0.090258
0.496746
0.855855
-0.333135
-0.587557
-0.273324
0.419945
0.450705
-0.535651
0.894222
-0.159172
0.674635
0.521548
0.551812
-0.397916
0.217306
0.723319
-0.135526
0.711891
0.345357
-0.455180
0.586684
-0.043557
0.991666
0.818316
0.291713
-0.449093
-0.916290
-0.446017
-0.611914
0.896887
0.435568
0.907748
0.783009
-0.886244
-0.687470
-0.498711
0.514766
0.772830
-0.021833
0.408489
-0.378642
-0.343883
-0.072366
-0.826272
0.247086
-0.865646
0.906062
-0.886589
0.838336
0.252194
-0.341788
0.425669
-0.790777
-0.366051
0.214792
0.500736
0.197877
0.321917
-0.965786
0.585118
0.217991
0.487102
0.486446
0.000742
0.584436
0.799078
0.500335
0.133481
0.562085
-0.520720
-0.470535
-0.801873
0.134411
0.467602
-0.657584
-0.629242
0.596360
-0.748050
-0.511988
0.439385
0.501304
0.132652
-0.123433
0.714585
0.770254
-0.892465
0.217079
-0.051332
0.421777
0.268896
-0.441632
-0.354488
-0.256970
-0.965166
0.642880
-0.624254
0.830084
0.143149
0.492140
0.419879
0.606601
-0.989026
0.601876
-0.242049
0.465157
0.965356
0.126850
0.047117
-0.782260
0.618428
-0.490283
0.711164
-0.228797
0.403557
0.425749
-0.489463
0.492740
-0.358442
0.474247
-0.085053
0.921155
-0.961465
0.551554
-0.321399
-0.928576
0.178926
0.020595
0.912453
-0.665676
-0.516012
0.304167
0.963840
-0.474775
-0.082639
-0.285863
0.981996
-0.136223
0.850577
0.041632
0.081022
0.476711
0.554650
-0.210214
-0.751531
-0.052910
-0.795053
-0.231968
-0.558317
-0.161402
-0.756963
0.356613
-0.239599
-0.717829
-0.107762
0.409799
-0.646606
-0.915814
-0.546189
-0.754671
-0.582335
-0.063013
0.566820
-0.624914
0.461958
-0.532239
0.089318
0.442252
0.365824
-0.069933
-0.515337
-0.565660
-0.578533
-0.961669
0.234628
-0.359492
-0.025319
0.433982
0.412000
0.420204
-0.722733
0.652197
-0.236752
0.049180
0.938426
0.659139
-0.524841
-0.706428
0.723856
-0.078702
-0.443491
-0.833893
0.864023
-0.889639
-0.468787
0.322608
-0.373594
0.616703
-0.235203
0.975134
-0.425515
0.233632
-0.601153
-0.020177
0.288898
0.620059
0.641384
-0.738270
0.039641
0.053826
0.685492
0.340123
-0.301873
-0.531141
-0.593429
-0.363448
-0.902916
-0.136616
-0.071140
0.835982
0.785111
0.496068
-0.991988
0.640230
0.620837
-0.462721
-0.052668
-0.786511
-0.835072
0.724379
-0.840123
-0.288752
-0.019069
-0.411013
0.702394
-0.737835
-0.799339
0.324834
-0.466518
0.252820
-0.621848
-0.773322
-0.403755
0.073874
-0.303904
-0.008297
0.699840
-0.197797
0.856941
-0.379205
-0.361047
0.642032
-0.882490
-0.352445
0.266334
0.709152
0.184633
-0.773312
0.946056
0.329045
0.950223
-0.894885
-0.942381
-0.075266
-0.306146
0.743587
0.186997
-0.107190
0.102706
0.710654
-0.853587
0.468351
0.952016
-0.258325
-0.447272
-0.381317
0.722639
-0.753028
0.424346
0.583424
-0.127547
-0.939548
0.211885
0.001473
-0.287933
-0.518128
-0.273189
0.898455
-0.310908
-0.334815
0.245113
-0.336099
-0.223949
0.289757
0.578651
0.466528
0.081634
-0.238195
-0.640721
-0.832757
-0.499816
-0.510137
0.624964
-0.563930
0.248474
-0.835727
0.075799
-0.030748
-0.603160
-0.499418
-0.443751
0.292511
-0.446850
0.788248
-0.688748
0.265217
-0.760795
0.019710
0.162408
-0.056657
0.685327
-0.581781
0.613163
-0.547531
0.722386
0.189867
0.903498
-0.229735
0.962633
-0.724981
-0.091246
-0.565346
-0.212201
-0.436011
-0.117961
-0.971390
-0.280130
0.938912
0.007465
0.129239
-0.561007
0.571410
-0.574948
-0.010262
0.360215
-0.274801
-0.755632
0.608435
0.746756
0.398870
-0.447448
0.432064
0.817734
-0.833694
0.868604
0.510926
0.355973
0.785117
-0.695394
0.298089
-0.940708
0.212556
0.750067
-0.159326
0.776290
-0.384311
-0.130618
-0.505535
-0.411124
0.867019
0.624484
0.015361
0.453112
-0.951446
-0.984393
-0.216098
-0.236993
-0.745625
-0.604204
-0.486396
0.657930
-0.054495
0.932098
0.487179
0.115871
0.804355
0.014284
-0.526402
0.570005
0.311213
0.789287
0.653883
-0.470487
0.526396
-0.515427
-0.697569
-0.809642
0.350114
-0.203170
-0.237851
0.244858
-0.594514
0.766880
-0.318163
-0.529025
0.769064
0.486786
0.232123
-0.990966
0.883019
0.749296
0.690169
-0.179353
0.701514
0.194632
0.936517
0.474952
-0.809436
-0.591149
0.060005
0.502210
-0.791151
-0.280186
-0.977185
0.749651
0.202434
-0.690256
0.906263
-0.436505
0.118817
-0.360342
0.780199
0.547218
-0.563189
-0.526643
-0.989466
-0.802515
0.941208
0.252255
-0.780968
0.823729
0.009255
0.912528
-0.358028
-0.288673
0.096047
-0.432093
-0.804704
0.288462
-0.031157
0.256076
-0.209346
0.178342
0.976475
-0.202462
-0.101206
0.178706
0.120298
-0.171524
0.721699
-0.761730
0.467326
0.519220
0.779070
0.903883
0.976150
0.789705
-0.900333
0.951638
0.032129
-0.680511
0.762857
-0.943927
-0.768965
-0.584663
-0.262028
0.316340
-0.022362
-0.063263
-0.391357
0.951170
-0.810035
0.385725
0.141026
-0.829503
-0.813084
-0.943998
0.350963
0.287746
-0.123192
0.090267
0.550602
-0.650123
-0.403486
0.319692
-0.749610
-0.379048
0.105558
-0.650008
-0.444505
-0.834588
-0.346348
-0.692276
-0.794643
-0.098378
-0.290361
-0.035626
-0.783888
0.672873
0.901544
-0.171681
0.647249
-0.916372
-0.765843
-0.194440
-0.745874
-0.609840
-0.156787
0.603821
0.692948
0.720451
-0.295213
0.249479
-0.938577
0.315718
-0.432780
-0.703689
0.902910
0.683734
-0.341455
-0.570341
0.820985
0.335114
-0.232353
-0.962338
-0.770926
0.468893
-0.016902
-0.545228
0.154294
-0.115852
0.290791
-0.195140
-0.034624
0.525506
0.599312
0.208923
0.924681
-0.555629
-0.195172
0.618398
-0.835199
0.510264
-0.131530
-0.789704
-0.203218
0.435490
-0.480378
-0.276893
0.098705
0.177321
0.151953
-0.062994
-0.493984
0.919344
-0.041741
-0.264807
0.386541
0.975637
0.180137
-0.458386
-0.152720
-0.514384
0.345493
0.823163
0.981684
-0.065941
0.026477
0.909837
0.382271
0.835992
0.525403
0.533503
0.357770
-0.602068
0.747452
-0.829272
0.835177
-0.752393
-0.113837
-0.048505
0.449516
-0.956146
0.875542
0.945552
0.959828
-0.117920
-0.323096
0.346304
-0.159378
0.884767
0.872093
0.677271
-0.645746
0.234522
0.487011
-0.642999
-0.833268
-0.500915
-0.732729
0.552561
-0.641718
0.784794
0.106188
0.733333
-0.817274
-0.177282
0.885716
-0.983361
0.085374
-0.227694
-0.021177
-0.459186
-0.192741
-0.131210
-0.515584
-0.248422
0.717106
0.172265
-0.889869
-0.471026
0.028885
1.005134
-0.763481
0.394460
0.231999
0.715140
0.732520
0.408320
-0.773263
0.999294
-0.031416
-0.411654
0.781681
-0.924675
-0.689425
0.953823
-0.092931
-0.801863
0.962552
0.993199
-0.029570
-0.057965
-0.465395
0.761753
0.781623
0.018817
-0.473648
0.522144
-0.829418
-0.364364
-0.949693
0.216776
-0.365642
-0.713428
-0.405179
0.866461
-0.999989
-0.638383
0.264953
-0.772462
-0.651599
-0.751776
-0.185102
-0.859406
-0.705890
0.114729
-0.911184
0.204649
0.316706
-0.943943
0.195008
-0.726439
0.009605
0.733675
-0.961032
-0.192590
-0.245745
-0.454148
-0.678124
-0.057559
0.206074
-0.622071
-0.853742
0.830456
-0.338871
-0.210640
0.693089
-0.338923
0.133883
-0.014241
-0.127213
0.471657
0.217850
0.704624
0.598827
0.533023
-0.182507
0.673239
-0.261893
-0.862232
0.752502
0.925230
-0.568551
-0.220607
0.658905
-0.560498
0.568449
-0.588109
0.000400
0.890757
0.365030
-0.787603
-0.740219
0.525696
-0.959092
-0.094596
-0.718698
0.744942
0.578731
0.386431
-0.297467
-0.525567
-0.111643
0.931705
-0.828604
-0.521203
0.445784
-0.001510
-0.835451
-0.816608
0.143959
0.920377
-0.893785
0.575966
-0.311339
0.754536
-0.975517
-0.741043
-0.841482
0.025655
-0.850306
0.524198
0.238643
-0.606453
0.020696
0.279350
0.311973
0.325417
0.003772
-0.110143
-0.288963
0.723634
0.357872
0.599144
0.638913
0.529371
-0.923760
0.118982
-0.481970
-0.758422
0.289867
0.676675
-0.839027
0.406587
0.223216
-0.161112
0.155527
0.251165
0.101686
0.318733
-0.726026
0.237811
-0.145555
0.516677
0.635011
0.891322
-0.202213
-0.072480
0.209067
0.819157
0.841961
0.925847
0.529833
0.189855
0.521621
0.217029
-0.284616
0.597796
-0.681084
0.261139
0.823545
0.598153
-0.078315
-0.998547
-0.008679
-0.834050
-0.161519
-0.867556
0.417549
0.943736
0.474396
0.683636
0.201670
-0.653891
0.200313
-0.194240
-0.780915
0.996831
0.748322
0.428581
0.826699
0.596206
0.345527
0.370944
-0.215886
-0.148362
-0.445786
0.510457
-0.538319
-0.155623
-0.256569
-0.691859
-0.527196
0.676439
-0.698066
0.455730
0.823452
0.150015
0.600692
0.240493
0.101453
0.078400
-0.078273
-0.696322
0.413404
-0.888546
0.118464
0.634336
-0.899624
-0.132448
0.062903
0.927724
-0.535648
-0.607506
0.269466
0.248264
0.257153
0.847097
-0.261795
0.717990
-0.309336
0.498959
-0.980288
0.163215
0.158981
-0.678252
-0.382753
0.016706
0.461933
-0.781271
-0.755308
-0.421927
0.296147
0.176923
-0.147674
-0.301194
0.282783
0.974240
-0.663015
0.387848
-0.161048
0.386311
0.327086
0.307365
0.782458
-0.387262
-0.442611
0.020148
-0.547846
0.313201
-0.237283
0.148566
-0.200805
-0.227548
-0.691594
1.006486
0.090361
-0.074411
0.006068
-0.419983
0.128490
0.240135
0.141961
-0.558427
-0.596361
-0.984664
0.138519
0.672018
0.990010
0.479076
0.083086
-0.178914
-0.114495
-0.572562
-0.871550
-0.362958
0.021823
-0.315429
0.672230
0.474407
1.008476
-0.559127
-0.385932
-0.177917
0.211378
-0.093036
-0.205224
-0.687304
0.844802
0.772098
-0.135448
-0.003788
0.042495
-0.982167
0.430126
0.437741
-0.985768
-0.421763
0.122287
1.003746
-0.934989
-0.791325
-0.177574
-0.048929
-0.374993
-0.059700
0.597129
0.648677
0.616951
0.270136
0.123070
0.626072
0.711600
0.721202
-0.581047
-0.077225
-0.358811
0.237143
0.214955
-0.514854
0.008430
-0.903168
0.474934
-0.949331
-0.901761
-0.094843
0.486713
-0.853250
0.473566
-0.390221
-0.862015
0.553263
-0.182530
-0.029088
-0.525106
0.431736
0.905607
-0.924505
0.084254
0.527246
0.342788
-0.806250
0.164832
0.058449
0.918606
0.599962
0.982981
-0.459674
-0.170565
0.215550
0.050057
0.843603
0.299408
-0.484986
0.890902
0.445936
0.416329
0.377550
0.575590
-0.082376
0.971504
0.702948
-0.545246
-0.194087
-0.339556
-0.049296
-0.764200
-0.448341
0.026656
0.323618
-0.897901
-0.638451
0.537481
0.284218
0.419998
0.425170
-0.134172
0.401714
0.980541
0.695692
-0.372038
0.036528
0.530390
0.941781
0.549591
0.405785
0.353963
-0.023137
-0.204416
-0.099200
0.866335
-0.209995
-0.365982
-0.667590
0.588255
0.286071
0.264177
0.833641
0.850237
-0.709676
0.164959
0.955662
-0.350529
-0.297002
0.228765
-0.941120
-0.862815
-0.903556
0.452690
-0.881504
0.792116
-0.918702
0.155616
0.306578
-1.006108
-0.294994
-0.274616
0.371264
0.661368
0.520123
-0.728747
0.545025
-0.696294
-0.094977
0.861008
0.892063
-0.810602
0.159470
0.715881
-0.959576
0.437287
-0.104474
0.995104
-0.902737
0.569082
0.213126
-0.849457
0.709740
0.313411
0.607917
0.825403
0.091958
0.700732
-0.014922
-0.597811
0.710791
0.691839
0.108109
0.074383
0.370814
-0.347185
0.351383
-0.097133
-0.053458
-0.746968
-0.187837
-0.165239
-0.557634
0.954538
-0.421633
-0.533039
0.381197
0.457761
-0.521000
0.465035
0.047899
0.690277
0.601174
-0.241907
0.007253
0.232311
-0.424398
-0.880676
-0.049687
0.560680
-0.509401
-0.357247
0.251254
0.613747
0.717566
-0.367232
-0.727515
0.060045
0.550046
0.217080
0.297566
-0.671544
-0.937197
0.752179
-0.745752
-0.386995
-0.757945
0.665710
-0.917911
-0.286600
0.122350
0.111050
-0.586743
-0.263948
0.868638
0.428209
0.971666
-0.558168
0.548090
-0.089136
-1.008064
-0.952296
0.555468
0.235274
0.662221
0.273015
0.868692
0.935305
-0.682874
0.389542
0.152183
0.627713
0.741415
0.194468
0.379045
-1.005168
0.824801
0.614684
0.660302
0.890463
-0.671820
-0.219046
0.035799
-0.268389
0.517788
-0.108072
-0.825493
0.488470
0.344267
0.693159
-0.611408
0.330599
0.744335
0.947904
-0.429439
0.403722
0.207345
-0.549230
0.343087
0.528125
0.856487
-0.502974
0.136373
0.590228
0.709094
-0.459996
0.590819
0.520938
-0.855293
0.247749
0.459685
-0.530941
-0.971359
-0.521612
0.228386
0.530600
0.359690
0.386760
0.036006
-0.309463
0.100975
0.422741
-0.993268
-0.154235
0.374215
-0.399488
-0.758406
-0.398323
0.068551
0.584681
-0.901115
-0.093313
-0.919558
0.250300
-0.502653
0.800247
0.796223
-0.920740
0.335597
0.938986
0.311504
-0.238478
-0.581011
0.352392
0.211158
0.619209
-0.094088
-0.398884
0.017285
0.934254
0.283262
-0.900666
0.366591
0.302521
-0.055418
-0.251496
0.906336
0.183778
0.350736
-0.036230
-0.242120
0.458645
0.872311
-0.169595
-0.290291
-0.630363
-0.368700
-0.493478
-0.567031
0.937696
-0.554691
0.757494
-0.277366
-0.156222
0.109039
0.932980
-0.519687
-0.991470
-0.466152
0.481180
0.942885
0.815414
0.614790
0.299648
0.118716
-0.453130
-0.937161
0.024065
0.741154
0.384147
0.977099
-0.506576
-0.153750
0.853253
0.328517
0.553113
-0.790682
0.971333
-0.936306
-0.354050
0.925204
-0.489241
-0.616033
-0.359837
0.372145
0.517594
-0.421107
0.839489
0.516144
0.109367
0.368950
0.455189
-0.075284
-0.033354
-0.217435
-0.972398
0.502885
-0.170729
0.068607
0.230616
-0.765530
0.043845
0.709636
0.081162
-0.099328
0.061373
-0.373620
0.130107
0.049975
-0.309927
0.745130
-0.043173
0.199565
-0.855861
0.597422
-0.417591
0.667656
-0.832593
-0.563694
0.181853
0.261268
0.771502
-0.352011
-0.801769
-0.290606
0.402398
-0.751252
-0.757447
-0.757009
0.309701
0.464773
-0.541477
-0.636863
0.186937
0.539172
0.271509
-0.748388
-0.836856
-0.597830
0.290475
-0.157357
-0.843685
-0.750850
-0.965710
-0.698777
0.846552
-0.382650
0.969478
0.998031
0.024458
0.151129
0.272319
-0.180623
0.778615
0.469702
0.527962
0.198326
0.712035
0.770263
0.424905
0.021831
0.233338
0.917704
0.375143
-0.578943
0.444369
-0.338662
-0.328314
0.618023
0.034085
0.951416
-0.544944
0.193863
-0.795590
-0.505966
0.492245
-0.962610
0.122898
0.465783
-0.960926
-0.836464
-0.381329
0.291925
-0.024757
-0.585120
-0.213786
-0.491046
0.600259
-0.511728
-0.724157
0.073446
0.506274
0.509119
-0.025945
-0.090866
0.914347
-0.592206
0.554339
-0.397031
-0.987606
-0.390532
-0.447473
-0.546954
0.803762
-0.239492
-0.029700
0.288130
-0.181985
-0.889535
-0.246087
-0.173832
-0.744344
0.371316
-0.866861
0.231327
0.796907
-0.074715
0.731375
0.411579
0.411604
-1.008292
-0.548736
-0.071189
0.513077
0.396566
0.809792
0.450341
0.834633
0.375454
-0.954352
0.838637
0.965985
-0.392228
-0.695805
0.769250
0.375978
0.277807
0.054975
-0.805453
0.377166
0.798301
0.029742
0.634669
0.161709
0.163647
-0.134020
-0.040736
-0.910481
-0.418576
-0.658358
0.500923
-0.413844
-0.183681
-0.590769
-0.901612
-0.787924
-0.763655
0.542309
-0.953544
0.595370
0.588059
0.883391
0.595635
-0.813994
-0.811625
0.352378
0.576667
0.465199
-0.582140
0.741776
-0.168380
-0.789440
-0.225013
-0.529867
0.376956
0.935790
0.322539
-0.652263
-0.970633
0.907616
-0.294440
0.532043
-0.525695
0.514201
0.958871
-0.402720
0.732022
-0.817742
-0.870392
0.775108
0.825904
0.713838
0.658434
0.404452
0.927553
0.830981
-0.253800
0.488092
0.313116
0.150635
0.250927
-0.857113
0.346803
-0.973655
-0.383419
-0.253033
0.954255
0.959234
0.111973
0.983621
0.835936
0.799175
0.514400
-0.674717
0.313806
0.483980
-0.071509
0.036928
0.680645
0.056145
-0.203476
0.472803
-0.219080
-0.532794
-0.151499
-0.319678
-0.678898
0.624973
-0.820264
0.626558
-0.232785
0.411723
0.779031
-0.873477
0.437575
-0.596688
-0.123199
0.389428
-0.636896
0.977665
0.362467
-0.791945
0.778686
-0.131047
-0.465885
0.092477
-0.646417
0.463190
-0.886532
-0.994966
-0.480862
-0.076986
0.501252
0.279552
0.389372
-0.651058
0.977200
0.704058
0.973662
-0.859490
0.330718
-0.260821
0.586518
0.099920
-0.133508
0.011586
0.517922
0.742311
-0.588479
0.851587
0.709228
0.768382
-0.936886
0.491755
-0.357977
-0.405613
-0.429342
0.007118
-0.938361
-0.312212
0.028333
-0.417465
0.591325
-0.478092
0.879684
0.005283
-0.123399
0.843927
-0.300636
-0.153113
-0.967287
-0.973747
0.586003
0.602143
0.153892
-0.563334
-0.396897
-0.344319
-0.804088
0.001199
-0.471672
0.903292
-0.244816
-0.408114
0.398611
0.420418
0.178389
0.989382
-0.555195
0.240027
-0.353756
0.454789
0.821295
-0.747387
0.977129
0.711691
0.263828
-0.155178
0.570023
0.961241
0.676207
0.568990
0.998443
0.274452
0.142381
0.124168
0.734033
0.775756
0.791168
0.922285
-0.231439
-0.699439
0.835162
0.536254
-0.108061
0.241473
-0.040016
-0.932076
0.231417
0.393684
0.297372
0.886675
-0.149679
0.110752
-0.859942
-0.172569
-0.176908
0.404477
0.656321
-0.636079
0.365518
0.345543
0.956326
0.343440
-0.380853
0.097902
-0.515070
-0.653236
-0.126600
-0.740328
-0.730849
0.640263
-0.405488
-0.905510
0.177306
0.473948
0.350647
-0.863691
0.552381
-0.447367
0.519246
-0.155853
-0.557231
-0.626590
0.959588
-0.420007
0.187268
-0.205806
0.988531
-0.152749
0.174296
0.355807
-0.826683
0.122946
-0.283147
-0.182950
-0.773413
0.188815
0.153837
0.096615
0.496772
0.419147
-0.263187
-0.925811
0.541358
0.898291
0.537507
-0.124123
-0.948465
0.076465
0.449558
0.568933
0.906208
0.892765
0.945898
0.889001
-0.535121
0.153289
-0.299517
-0.546590
0.969613
0.856423
0.807950
-0.842029
-0.020205
-0.464497
-0.019047
0.197483
0.738726
-0.867161
-0.721404
0.201744
0.562942
0.027652
0.247180
0.076141
-0.051138
-0.185042
0.963336
-0.007269
0.883036
0.393954
-0.428747
0.801756
0.286226
-0.475145
0.694083
0.748699
0.678698
-0.616545
-0.808475
0.657326
-0.758276
-1.008435
0.816067
0.221505
-0.472281
-0.202388
-0.596945
-0.762749
-0.069754
-0.305334
0.462411
-0.527323
0.721473
-0.291219
0.566138
-0.336088
0.523488
0.513048
0.656747
0.404821
-0.058713
-0.781826
0.207368
-0.784995
-0.242285
-0.099534
0.974216
-0.593027
0.273178
-0.839859
-0.932229
0.518745
-0.843605
0.881005
-0.273324
-0.304371
-0.317324
0.133393
-0.050941
0.614680
0.808583
-0.596207
-0.895046
0.554642
0.118324
0.658134
-0.791425
-0.361566
0.219465
0.861493
-0.956806
-0.856343
-0.892623
0.234732
-0.651965
-0.151039
-0.847863
-0.691172
0.276994
0.423456
-0.545435
0.345208
-0.054228
-0.365820
0.218327
0.692560
0.347082
0.901003
-0.204973
-0.722214
0.514418
-0.381343
-0.317990
0.630084
-0.820780
0.791424
0.302629
-0.614150
-0.585641
-0.511665
-0.741712
-0.530206
-0.396760
-0.662497
0.727441
-0.018453
0.197785
0.871918
0.281982
-0.544156
0.304970
0.749066
0.800548
-0.741561
-0.613442
0.016470
0.951557
0.722529
-0.093103
-0.244389
1.002163
-0.586604
0.375034
-0.315848
-0.955872
0.554845
-0.540353
0.317555
0.940494
-0.112979
0.829307
-0.821735
0.355967
-0.568264
-0.466914
0.076996
0.413032
0.714449
-0.050987
-0.306682
-0.795428
-0.755843
-0.556827
0.992610
-0.482720
-0.171255
0.019582
-0.560602
-0.459469
0.920875
0.198478
-0.453468
-0.661041
-0.429336
0.217114
-0.605396
-0.870431
0.680414
0.728335
-0.928184
-0.452032
0.549968
-0.732321
0.928524
0.987450
-0.212190
-0.004463
0.397109
-0.449456
0.940721
-0.909635
-0.261979
-0.787412
-0.482290
-0.279995
-0.286261
0.363393
0.726170
0.174195
0.902075
0.632641
-0.626894
-0.547835
0.994808
-0.064108
0.689398
-0.593312
0.065460
0.338896
-0.883323
0.136012
0.901908
0.667076
0.414401
0.836355
0.645622
-0.783381
-0.170055
0.027225
-0.266591
-0.218399
0.129839
0.442677
-0.033959
0.670463
-0.807046
0.691098
0.026195
0.910734
-0.153646
-0.062138
0.555888
0.218967
0.397727
0.554020
-0.847546
0.087687
0.949603
0.207339
-0.564404
-0.931874
-0.664567
-0.661726
0.735182
0.750484
-0.824772
0.364876
0.937909
0.004969
-0.594877
-0.305266
0.766070
0.534117
-0.863401
-0.250573
0.198166
-0.670699
-0.575898
-0.775540
-0.761666
0.304742
0.152489
0.795011
-0.488796
-0.435096
0.348048
-0.325838
0.623149
0.286905
0.875896
-0.937783
0.358872
-0.783983
-0.602341
0.080485
0.978018
-0.423055
-0.550986
0.932100
0.583671
-0.165329
-0.380840
0.367348
-0.606629
-0.238490
-0.896189
0.581553
0.087436
-0.423803
0.802184
0.325705
0.863843
-0.017609
0.104890
-0.635583
0.531162
-0.530127
0.025161
0.175368
0.754929
-0.113342
0.238038
0.117365
0.125889
0.627803
-0.782037
0.121176
-0.795253
-0.363940
0.034925
0.787154
0.485776
0.654517
0.165195
0.885069
-0.592882
0.283427
0.464675
0.479048
0.825864
0.277793
-0.182998
0.660962
-0.767971
0.944806
-0.944354
0.774512
-0.592981
0.072412
-0.069059
-0.828467
0.971583
-0.831526
0.296598
0.100783
0.793870
0.515119
-0.789150
0.988033
-0.839803
0.247622
0.767279
0.646740
-0.097876
-0.066868
0.532408
0.293309
-0.812641
-0.003121
-0.214622
-0.963362
-0.745828
0.601534
0.696781
-0.496481
0.539921
0.752175
-0.738391
0.947042
-0.177112
0.226835
-0.891248
-0.204737
0.382802
0.420034
0.895064
0.187175
-0.094270
-0.904833
0.169615
0.069391
0.346630
-0.058415
-0.286710
-0.764820
0.886231
-0.750242
0.532142
-0.910237
0.248400
-0.701948
-0.881273
0.520163
0.924172
0.821254
-0.989272
0.454114
0.570059
-0.679386
0.397315
-0.607115
0.530361
0.533788
0.172318
-0.097464
-0.062307
0.084318
-0.923707
0.864470
0.177625
0.231511
-0.065697
-0.472170
-0.803710
0.639700
-0.216873
-0.900201
0.889457
-0.715649
-0.828783
0.136587
-0.402553
-0.709625
-0.332540
-0.472455
-0.897275
-0.307398
0.979708
0.657283
-0.020537
0.387968
-0.937590
-0.518921
-0.106393
0.257645
0.413875
0.842619
-0.665699
0.481777
0.688152
0.521523
-0.274192
-0.378059
-0.942947
-0.074585
-0.740765
-0.159262
0.014103
-0.861892
0.134109
0.187174
0.266790
0.732313
0.477530
0.934896
-0.739548
0.564326
-0.401704
-0.760041
0.234625
0.601176
0.607422
0.296187
-0.918564
-0.481655
-0.452586
0.495063
-0.655458
-0.118182
-0.024859
-0.933027
-0.606483
0.701732
-0.323592
-0.534746
-0.373836
-0.053855
0.276560
0.629528
0.078660
-0.585878
-0.179455
-0.649866
-0.856397
-0.715498
-0.703452
-0.591887
0.852481
-0.088980
-0.350172
0.067641
-0.495479
-0.725156
-0.611587
-0.408293
-0.219765
-0.074152
-0.916603
0.173062
0.803837
0.058476
0.222942
-0.774936
-0.255621
0.888718
-0.325810
0.387479
-0.178553
0.971802
0.015146
0.885703
-0.613642
0.839259
-0.740957
-0.477919
-0.856119
-0.427125
-0.069806
0.965448
0.465542
0.578754
0.048131
0.970494
0.864310
0.442470
-0.446705
-0.341043
-0.633633
-0.378817
0.798259
-0.818504
0.691906
-0.005168
-0.621719
-0.539773
-0.088565
0.056395
0.832981
0.724097
0.017803
-0.136233
0.622701
0.402285
-0.289271
0.885080
0.940225
-0.144222
-0.553162
-0.158164
-0.158196
0.914232
-0.569675
0.878527
0.884706
-0.722627
0.321585
-0.577929
-0.092874
0.687756
0.056276
-0.271195
0.848388
-0.252673
0.720041
-0.756191
0.200171
-0.368375
0.290901
0.039239
-0.645581
-0.658397
0.893179
0.977919
0.731394
-0.381407
0.863670
0.663590
0.444331
-0.701886
-0.500179
-0.722578
-0.789699
-0.083083
-0.846883
-0.912675
0.205811
0.478764
-0.486941
-0.858312
0.168460
0.549753
-0.149750
0.038483
-0.678221
-0.423451
0.265059
0.511918
0.204579
-0.395645
-0.452683
0.559041
-0.071096
-0.531783
0.521228
-0.350492
0.070680
0.400084
-0.700064
-0.469542
0.696350
-0.214616
-0.186067
0.917020
0.725477
-0.040846
-0.976459
-0.052525
-0.562080
-0.494326
0.059346
0.604929
-0.929424
0.910024
-0.350099
-0.602274
-0.522446
0.928659
0.908252
0.666743
-0.500139
-0.533128
0.238023
0.402249
-0.093188
-0.216901
-0.920358
0.981420
-0.831544
-0.629211
-0.492915
0.880430
0.169052
0.319129
0.804233
-0.102139
-0.705857
0.828938
0.835325
-0.296522
-0.644812
-0.103476
-0.681855
-0.585631
-0.193469
-0.049216
-0.186759
0.268155
-0.149040
-0.278705
-0.052089
0.374235
0.167301
-0.814918
-0.227107
-0.908745
-0.039208
-0.147325
-0.936637
0.135336
0.222159
-0.396651
0.005937
-0.607996
0.909984
-0.175137
0.290534
-0.803901
-0.376236
0.113467
-0.106024
-0.029743
-0.992055
0.198891
0.381783
-0.193208
-0.838800
-0.800911
-0.921400
0.040905
-0.077676
0.006943
-0.605107
-0.888747
0.216715
0.174041
-0.814710
-0.832522
-0.976879
-0.702961
0.298974
0.245324
-0.116657
-0.667362
0.621596
-0.217461
0.141370
-0.072682
-0.034526
0.780584
-0.961063
0.845070
-0.243118
-0.942749
0.067160
-0.869229
-0.116757
0.244528
-0.670139
-0.069080
-0.744384
0.250735
0.953009
-0.349063
0.368489
0.175101
0.815960
0.567474
0.341181
0.823690
0.831369
-0.345690
0.081254
-0.311809
-0.044178
-0.270145
0.498615
-0.894872
0.638960
-0.543959
0.880577
0.693849
-0.686743
-0.368123
0.757883
0.383740
-0.221496
-0.356154
-0.383163
0.080053
0.593874
-0.124274
-0.659719
0.537692
0.526645
0.691505
-0.288360
0.326678
0.231475
-0.947374
0.163381
0.085277
-0.316781
-0.756219
0.769373
0.656834
-0.040595
0.268643
0.747987
-0.391531
0.722646
0.657818
-0.702277
-0.963302
-0.722802
-0.934937
0.421109
0.050838
-0.322723
-0.973028
-0.878098
-0.737608
-0.099349
-0.551050
0.794956
-0.580383
-0.848019
-0.489341
0.749920
0.411211
-0.434631
-0.111805
-0.523745
0.270667
0.162522
-0.747614
-0.090969
-0.884703
0.517443
-0.294586
-0.280074
0.240131
-0.654431
0.040145
0.261097
-0.387439
0.089075
-0.302608
0.647098
0.781682
-0.277494
0.754975
-0.949943
0.632699
-0.773242
0.837340
-0.927649
-0.607263
-0.652000
0.791178
0.776325
-0.088226
-0.299709
-0.746825
-0.811643
0.868645
-0.503616
0.107772
0.981804
-1.001573
0.783331
-0.284400
0.250807
-0.897030
0.725185
-0.455236
-0.256587
-0.177408
0.237746
-0.617277
-0.400353
0.956556
-0.850771
-0.356691
0.596876
-0.620678
-0.504208
0.659565
-0.237225
-0.183235
0.489445
-0.457592
0.734950
-0.826588
-0.204599
0.908538
-0.959711
0.275855
-0.018455
-0.978107
0.287305
-0.202130
-0.285945
-0.462746
-0.099855
-0.510641
0.024387
0.640807
0.264683
-0.709872
-0.978769
0.892546
-0.757912
-0.828745
-0.476639
0.848422
-0.450097
0.014727
0.488742
0.303084
0.822205
-0.037567
0.843424
0.546432
0.130836
-0.368836
0.466494
0.175188
0.910689
-0.522404
0.186489
0.172041
0.264001
0.935957
0.740622
-0.832504
-0.626416
-0.204046
0.804855
0.710637
0.082243
0.825986
0.561520
0.346803
0.980640
-0.925310
0.179115
-0.452059
0.073390
-0.316814
0.849170
-0.117876
0.651596
0.669700
-0.533878
-0.225240
-0.646649
0.911164
0.949950
-0.767837
-0.609938
0.147520
0.426663
0.654650
0.088801
0.171881
0.812964
0.472696
0.966958
0.602261
0.129500
0.063067
0.440510
-0.334899
-0.620665
0.454877
-0.232319
0.566781
0.998409
0.833282
-0.754652
0.843879
-0.273608
0.890544
0.553653
0.180553
-0.319550
0.897342
0.102599
-0.396635
-0.831063
0.495968
0.757300
0.579285
0.150436
-0.168731
-0.249342
-0.052529
-0.730795
-0.282585
-0.437231
0.431698
0.757051
-0.997579
-0.903898
-0.813498
0.399663
-0.138962
0.706011
0.426071
-0.307980
0.979572
0.265352
0.419197
0.857618
-0.171533
-0.400922
-0.466357
-0.293438
0.692082
0.127722
-0.140248
0.185982
-0.125700
-0.565969
-0.671242
0.717094
0.188751
0.279908
-0.984149
0.895570
0.816713
0.436082
0.688036
0.850463
0.535540
0.822806
0.281076
-0.606870
0.601191
-0.296695
0.085050
0.539100
0.991134
-0.512350
0.386530
-0.196511
0.104125
0.904142
0.525382
-0.205658
0.018392
-0.608890
0.957442
0.930257
-0.182533
-0.661313
0.625896
-0.993780
0.586708
0.643050
0.912876
0.425882
0.079717
0.606245
0.280943
-0.393920
0.439354
-0.438863
-0.016356
-0.013289
0.277099
-0.919036
-0.500075
0.247903
-0.392900
0.914314
-0.949662
0.717020
0.811444
0.577800
-0.507291
-0.159956
0.956201
-0.509775
-0.241662
-0.190481
-0.198471
-0.604877
-0.214625
-0.554226
-0.958525
-0.326858
0.837107
0.120919
-0.721306
0.135399
0.711161
0.683579
0.696330
-0.292152
-0.297033
-0.048795
-0.210754
0.194323
-0.740014
0.321106
0.113753
-0.757144
0.062715
-0.077884
0.843397
0.550828
0.762949
0.787104
-0.949485
-0.478332
-0.453883
-0.149505
-0.093865
0.330205
0.280158
-0.054463
-0.993226
0.130110
-0.941108
-0.703009
-0.730442
0.774220
-1.000368
0.955700
-0.544382
-0.298640
-0.058251
0.238212
0.906794
0.130418
-0.361491
0.017208
0.454368
0.697394
0.939227
0.247963
0.265971
0.691320
0.025147
0.305085
-0.776416
0.580607
-0.846503
0.127850
-0.086221
0.457097
-0.939839
-0.058386
-0.420504
-0.838091
0.226086
-0.150944
0.903423
0.228348
-0.184568
-0.618188
0.930261
0.759048
0.653937
0.828013
-0.096618
-0.701059
-0.170345
-0.703940
-0.988580
-0.218846
0.518389
0.263312
-0.495168
-0.428598
-0.436235
-0.274701
-0.852281
-0.271839
0.843795
0.052548
-0.819270
0.934381
0.982263
-0.232355
-0.927723
0.210362
0.599513
-0.970180
-0.557983
-0.584929
-0.595981
-0.628074
-0.832921
-0.943909
-0.815790
0.035719
-0.645180
0.026910
0.364071
-0.658520
0.808573
-0.127664
0.642016
-0.737771
0.451104
-0.842400
-0.002345
0.593027
-0.083194
-0.163149
-0.353642
0.085039
-0.221826
-0.372009
0.856505
-0.151978
0.828715
0.444091
-0.137908
-0.731338
0.852607
0.252368
-0.366873
-0.968789
0.312508
-0.179132
0.104094
0.660005
0.821932
-0.550207
-0.964224
0.649372
0.335523
0.624496
0.941471
-0.216746
0.835584
-0.064713
-0.623821
-0.263993
0.786396
0.011080
0.804932
-0.440802
0.651286
0.644887
0.394364
0.478309
0.072535
-0.709344
0.730517
-0.034310
0.535347
-0.591223
0.002004
-0.152144
0.198653
-0.926777
-0.484324
0.043874
-0.476444
-0.450715
-0.299517
0.850017
-0.810949
-0.351237
-0.382116
0.990189
0.613781
0.006154
-0.305491
0.369244
-0.955419
-0.475206
0.924336
0.683481
-0.820671
0.344247
0.167122
0.250797
0.630689
-0.068869
-0.795515
0.180454
0.351316
0.190802
-0.982110
-0.483460
0.267336
-0.477264
0.591493
0.790780
0.065055
-0.696478
0.624843
0.199728
-0.047930
-0.744398
0.241849
-0.473285
0.262255
0.916811
0.910008
0.296672
-0.539354
0.820275
-0.030233
-0.377378
0.196642
-0.867707
0.874100
-0.184104
0.072910
-0.927270
1.043421
-0.616680
0.259259
0.987490
-0.062005
-0.475376
-0.498111
-0.471161
-0.692446
0.578504
-0.163588
0.935871
-0.163574
0.772771
-0.831230
-0.942295
-0.651244
0.444605
0.998024
-0.773053
-0.262059
-0.544701
-0.908172
0.703811
0.077819
0.275090
0.854697
-0.046718
-0.919188
-0.084553
0.030777
-0.941504
0.294859
-0.709407
-0.970699
-0.740665
-0.177077
-0.421841
-0.219434
0.148832
-0.846879
0.616980
0.055404
-0.042218
0.405960
0.243930
0.016879
0.752348
-0.288363
0.005813
0.988689
0.441689
0.450900
-0.945416
0.174595
-0.464371
0.303913
-0.014913
0.503190
0.410095
0.907828
-0.483366
0.474761
0.219545
-0.184489
0.506705
0.474044
0.645290
-0.933277
-0.730750
-0.180382
-0.793342
0.862379
0.820382
0.167744
0.278736
0.088469
-0.815468
0.009464
0.808548
0.174335
-0.056646
0.250005
-0.367069
0.050563
-0.613778
0.167761
-0.657103
0.386687
-0.349482
0.763378
0.287813
0.173919
0.224260
-0.462065
0.984836
-0.268346
1.000533
0.639603
-0.207297
-0.677748
-0.595564
-0.005096
-0.881586
-0.731345
-0.837049
0.380795
0.368115
-0.662690
-0.598180
0.180727
0.515188
0.395748
-0.588926
-0.874893
-0.567352
-0.147513
0.327258
-0.209523
-0.786933
0.967051
-0.449603
0.561431
0.137059
0.774564
-0.936243
0.151264
-0.499989
-0.939995
-0.232046
0.304872
-0.689087
0.193742
-0.699838
-0.583621
0.463546
-0.536771
0.839578
-0.175925
-0.174865
-0.786616
-0.995196
-0.689771
0.610279
-0.563974
-0.545492
-0.955631
0.288375
0.795878
-0.174375
0.507052
0.745556
0.365638
0.026112
-0.085768
0.147292
0.069988
-0.978432
0.668757
0.155359
-0.222387
-0.043326
0.474045
0.969536
0.265199
0.887695
0.427275
0.740886
0.709994
-0.730571
-0.411656
0.935504
-0.742614
-0.148211
0.549077
-0.312481
0.324652
0.593295
0.955806
0.120627
-0.597079
0.407721
-0.134049
0.776434
-0.513286
0.738791
-0.099969
0.548307
0.781119
-0.439177
-0.289140
-0.460887
0.535109
-0.830576
-0.460821
-0.204179
-0.942160
0.954228
-0.453810
0.761835
-0.740762
0.082465
0.696495
-0.546602
0.972341
0.240674
0.130411
0.309126
-0.174294
0.097774
-0.566180
0.232322
-0.447588
0.278180
-0.014123
0.029371
0.070972
0.929245
-0.410583
-0.188813
-0.496165
0.296822
0.411594
-0.964953
0.466150
0.914253
-0.142052
0.520031
0.863703
0.383503
0.292097
-0.934969
-0.513458
-0.017319
-0.497163
-0.539469
-0.770739
0.677004
0.762058
0.078670
-0.251406
-0.804121
-0.719275
0.305527
0.496141
0.285651
-0.663583
-0.436564
0.242633
-0.083459
0.387357
0.728994
-0.796865
-0.243965
0.765500
0.676216
-0.350211
-0.398935
0.206550
-0.460574
0.985101
-0.500478
-0.400187
-0.526611
0.484687
0.114563
-0.075493
0.725459
-0.224433
-0.301380
-0.202986
0.535751
-0.141699
0.104653
-0.155431
-0.568264
-0.618915
0.180700
-0.076609
0.606909
-0.918698
-0.725180
0.335671
-0.707857
0.064357
0.089570
0.956224
0.709440
0.749066
0.129838
-0.747699
0.686521
0.660367
-0.151379
-0.814308
0.140536
0.963932
0.097049
-0.124542
-0.281785
0.809203
0.651844
-0.731803
-0.344381
-0.251657
0.107697
0.017993
0.124746
-0.719461
0.952935
-0.264280
-0.634483
-0.739293
-0.940713
-0.368275
0.311075
0.226471
-0.340302
0.028169
-0.123412
0.788751
0.277025
-0.368609
0.445277
-0.874449
-0.221533
-0.397386
-0.924903
0.864845
0.467635
-0.170813
0.643155
0.134928
0.089436
-0.715444
0.888100
-0.826027
0.340200
0.005178
-0.490019
0.254212
0.740900
-0.156391
0.531705
0.812781
0.498248
-0.156458
0.016781
-0.868892
0.862434
0.891028
0.920770
0.124144
-0.528639
0.382929
0.261716
0.223436
0.966557
0.376790
0.116167
0.436944
-0.790818
-0.244791
-0.448826
0.281700
0.047823
-0.555498
0.498806
-0.623253
0.462461
0.986378
0.660011
0.188895
-0.118825
0.195008
-0.001887
-0.635020
-0.961791
0.987543
-0.503991
0.884772
0.843109
-0.583421
0.021711
-0.652291
0.772781
-0.740163
0.582947
0.783213
0.562537
-0.316142
0.167458
0.814440
0.433092
0.759581
0.091619
-0.518300
-0.809766
-0.400137
-0.126245
0.638928
-0.420236
-0.488587
-0.179966
0.446181
0.701500
0.807196
0.804796
0.731719
0.806266
-0.695135
0.620180
0.649906
-0.269899
-0.384266
-0.984604
-0.488535
-0.070209
0.589190
-0.751532
-0.445937
-0.730346
0.503626
-0.635327
0.702594
0.205062
0.462862
-0.834262
0.384634
-0.937463
0.042863
0.019233
-0.343563
0.546219
0.826226
-0.890215
0.218807
0.675514
0.906910
0.011607
0.455225
-0.788223
-0.400118
0.135836
-0.066291
0.238406
0.151896
0.449264
-0.821921
-0.268167
0.717553
-0.274140
-0.031882
0.151304
0.129049
-0.299271
-0.669996
-0.445598
-0.078825
0.742502
-0.380088
0.951491
-0.242028
0.279968
0.486001
-0.409276
0.379881
-0.246446
-0.750680
0.324415
0.749573
0.715589
0.501584
-0.604971
-0.145285
-0.584941
0.590583
1.006296
0.870330
0.788937
-0.277744
0.552727
-0.485403
0.721165
-0.263003
0.594251
-0.601899
0.071492
-0.774244
0.229289
-0.193988
-0.225635
0.234151
0.557655
-0.919978
-0.284366
-0.850835
0.446604
0.478649
-0.586863
-0.291191
0.214903
-0.893571
-0.778500
0.593963
-0.043187
-0.362418
0.204541
-0.044874
-0.480565
-0.001271
0.681695
-0.939169
0.505992
0.375210
-0.172814
0.120287
0.799037
0.896749
0.280255
0.125129
-0.300643
-0.856919
-0.644549
-0.743086
-0.831193
0.093773
-0.610552
0.601083
-0.443912
-0.195315
-0.670840
0.785535
-0.096213
-0.446634
0.386295
0.841670
0.213245
-0.415678
-0.152227
0.705958
0.583054
-0.503364
0.813291
0.096869
0.895805
-0.358866
-0.785471
0.722530
-0.471325
0.526453
-0.146857
0.212514
0.599767
0.222736
0.481649
0.738534
-0.714824
0.898997
0.367499
-0.150797
-0.314524
0.688611
-0.369463
0.608046
-0.762963
-0.988551
0.488277
0.437420
-0.388373
-0.661230
0.158652
-0.833644
-0.144226
-0.024780
0.272732
-0.257750
0.616094
0.491282
-0.529501
-0.871160
-0.006458
0.323443
0.354349
-0.384252
-0.477536
-0.164857
-0.649821
-0.174575
-0.280092
0.718334
0.660664
0.415487
0.404905
-0.679539
0.018932
0.642739
-0.680588
-0.483328
0.080828
-0.073826
-0.176187
-0.771488
0.083553
0.670817
0.201687
-0.656952
-0.592070
-0.189900
0.845855
-0.117509
-0.057424
-0.132847
-0.791984
-0.728196
0.462669
-0.247436
0.137499
0.819606
0.559533
0.850781
0.534354
0.268587
0.262427
-0.060697
0.571385
-0.696143
-0.433691
0.880590
-0.195600
0.662325
-0.209535
0.643540
0.888988
0.859992
0.320347
0.100213
-0.774128
0.720597
0.930340
-0.914275
-0.396910
-0.158192
-0.074742
-0.190486
0.134538
-0.611477
0.567991
-0.722132
-0.801048
0.137902
-0.873490
0.717915
-0.623364
0.400228
-0.330543
0.922096
0.675819
0.259613
0.830567
-0.515853
-0.092788
-0.387763
-0.876946
-0.188172
-0.515243
0.441721
0.919652
-0.286031
0.178182
0.851156
-0.208138
0.752677
-0.286242
0.718978
-0.428061
0.836887
-0.892684
-0.877350
-0.884845
-0.709660
0.235370
-0.758535
-0.978732
0.635419
0.620839
-0.310129
0.553912
0.313794
0.942095
0.384625
0.788635
-0.144602
0.995565
0.944583
0.657400
-0.518878
0.373813
0.591736
0.195757
-0.456044
0.412857
0.975234
-0.708958
-0.882099
0.692167
-0.150253
0.951956
0.791801
-0.016081
-0.928828
-0.914206
-0.751965
-0.685430
-0.912509
0.863210
0.957039
-0.197942
0.423383
0.253616
-0.265872
-0.195587
0.090650
0.585697
-0.199980
0.018179
0.270806
0.265411
-0.618802
-0.153587
-0.523642
-0.088002
-0.725281
-0.550255
0.188667
-0.601344
-0.847720
-0.938409
-0.657270
0.963276
0.061698
-0.586097
-0.981843
0.279916
-0.272972
-0.879207
0.143553
-0.309432
-0.071770
-0.442079
0.957883
0.660959
0.346937
0.015379
0.257936
-0.840798
-0.992951
-0.499526
0.448460
-0.583873
0.350819
0.910092
0.319330
0.620746
-0.624540
-0.479118
-0.982479
-0.465478
-0.414194
-0.623890
-0.501036
0.637492
-0.238570
-0.462297
-0.080738
0.498198
